{"learner":{"attributes":{"scikit_learn":"{\"_estimator_type\": \"regressor\"}"},"feature_names":["Wind Speed (m/s)","Wind Direction (°)","Week","Month"],"feature_types":["float","float","int","int"],"gradient_booster":{"model":{"gbtree_model_param":{"num_parallel_tree":"1","num_trees":"1000"},"iteration_indptr":[0,1,2,3,4,5,6,7,8,9,10,11,12,13,14,15,16,17,18,19,20,21,22,23,24,25,26,27,28,29,30,31,32,33,34,35,36,37,38,39,40,41,42,43,44,45,46,47,48,49,50,51,52,53,54,55,56,57,58,59,60,61,62,63,64,65,66,67,68,69,70,71,72,73,74,75,76,77,78,79,80,81,82,83,84,85,86,87,88,89,90,91,92,93,94,95,96,97,98,99,100,101,102,103,104,105,106,107,108,109,110,111,112,113,114,115,116,117,118,119,120,121,122,123,124,125,126,127,128,129,130,131,132,133,134,135,136,137,138,139,140,141,142,143,144,145,146,147,148,149,150,151,152,153,154,155,156,157,158,159,160,161,162,163,164,165,166,167,168,169,170,171,172,173,174,175,176,177,178,179,180,181,182,183,184,185,186,187,188,189,190,191,192,193,194,195,196,197,198,199,200,201,202,203,204,205,206,207,208,209,210,211,212,213,214,215,216,217,218,219,220,221,222,223,224,225,226,227,228,229,230,231,232,233,234,235,236,237,238,239,240,241,242,243,244,245,246,247,248,249,250,251,252,253,254,255,256,257,258,259,260,261,262,263,264,265,266,267,268,269,270,271,272,273,274,275,276,277,278,279,280,281,282,283,284,285,286,287,288,289,290,291,292,293,294,295,296,297,298,299,300,301,302,303,304,305,306,307,308,309,310,311,312,313,314,315,316,317,318,319,320,321,322,323,324,325,326,327,328,329,330,331,332,333,334,335,336,337,338,339,340,341,342,343,344,345,346,347,348,349,350,351,352,353,354,355,356,357,358,359,360,361,362,363,364,365,366,367,368,369,370,371,372,373,374,375,376,377,378,379,380,381,382,383,384,385,386,387,388,389,390,391,392,393,394,395,396,397,398,399,400,401,402,403,404,405,406,407,408,409,410,411,412,413,414,415,416,417,418,419,420,421,422,423,424,425,426,427,428,429,430,431,432,433,434,435,436,437,438,439,440,441,442,443,444,445,446,447,448,449,450,451,452,453,454,455,456,457,458,459,460,461,462,463,464,465,466,467,468,469,470,471,472,473,474,475,476,477,478,479,480,481,482,483,484,485,486,487,488,489,490,491,492,493,494,495,496,497,498,499,500,501,502,503,504,505,506,507,508,509,510,511,512,513,514,515,516,517,518,519,520,521,522,523,524,525,526,527,528,529,530,531,532,533,534,535,536,537,538,539,540,541,542,543,544,545,546,547,548,549,550,551,552,553,554,555,556,557,558,559,560,561,562,563,564,565,566,567,568,569,570,571,572,573,574,575,576,577,578,579,580,581,582,583,584,585,586,587,588,589,590,591,592,593,594,595,596,597,598,599,600,601,602,603,604,605,606,607,608,609,610,611,612,613,614,615,616,617,618,619,620,621,622,623,624,625,626,627,628,629,630,631,632,633,634,635,636,637,638,639,640,641,642,643,644,645,646,647,648,649,650,651,652,653,654,655,656,657,658,659,660,661,662,663,664,665,666,667,668,669,670,671,672,673,674,675,676,677,678,679,680,681,682,683,684,685,686,687,688,689,690,691,692,693,694,695,696,697,698,699,700,701,702,703,704,705,706,707,708,709,710,711,712,713,714,715,716,717,718,719,720,721,722,723,724,725,726,727,728,729,730,731,732,733,734,735,736,737,738,739,740,741,742,743,744,745,746,747,748,749,750,751,752,753,754,755,756,757,758,759,760,761,762,763,764,765,766,767,768,769,770,771,772,773,774,775,776,777,778,779,780,781,782,783,784,785,786,787,788,789,790,791,792,793,794,795,796,797,798,799,800,801,802,803,804,805,806,807,808,809,810,811,812,813,814,815,816,817,818,819,820,821,822,823,824,825,826,827,828,829,830,831,832,833,834,835,836,837,838,839,840,841,842,843,844,845,846,847,848,849,850,851,852,853,854,855,856,857,858,859,860,861,862,863,864,865,866,867,868,869,870,871,872,873,874,875,876,877,878,879,880,881,882,883,884,885,886,887,888,889,890,891,892,893,894,895,896,897,898,899,900,901,902,903,904,905,906,907,908,909,910,911,912,913,914,915,916,917,918,919,920,921,922,923,924,925,926,927,928,929,930,931,932,933,934,935,936,937,938,939,940,941,942,943,944,945,946,947,948,949,950,951,952,953,954,955,956,957,958,959,960,961,962,963,964,965,966,967,968,969,970,971,972,973,974,975,976,977,978,979,980,981,982,983,984,985,986,987,988,989,990,991,992,993,994,995,996,997,998,999,1000],"tree_info":[0,0,0,0,0,0,0,0,0,0,0,0,0,0,0,0,0,0,0,0,0,0,0,0,0,0,0,0,0,0,0,0,0,0,0,0,0,0,0,0,0,0,0,0,0,0,0,0,0,0,0,0,0,0,0,0,0,0,0,0,0,0,0,0,0,0,0,0,0,0,0,0,0,0,0,0,0,0,0,0,0,0,0,0,0,0,0,0,0,0,0,0,0,0,0,0,0,0,0,0,0,0,0,0,0,0,0,0,0,0,0,0,0,0,0,0,0,0,0,0,0,0,0,0,0,0,0,0,0,0,0,0,0,0,0,0,0,0,0,0,0,0,0,0,0,0,0,0,0,0,0,0,0,0,0,0,0,0,0,0,0,0,0,0,0,0,0,0,0,0,0,0,0,0,0,0,0,0,0,0,0,0,0,0,0,0,0,0,0,0,0,0,0,0,0,0,0,0,0,0,0,0,0,0,0,0,0,0,0,0,0,0,0,0,0,0,0,0,0,0,0,0,0,0,0,0,0,0,0,0,0,0,0,0,0,0,0,0,0,0,0,0,0,0,0,0,0,0,0,0,0,0,0,0,0,0,0,0,0,0,0,0,0,0,0,0,0,0,0,0,0,0,0,0,0,0,0,0,0,0,0,0,0,0,0,0,0,0,0,0,0,0,0,0,0,0,0,0,0,0,0,0,0,0,0,0,0,0,0,0,0,0,0,0,0,0,0,0,0,0,0,0,0,0,0,0,0,0,0,0,0,0,0,0,0,0,0,0,0,0,0,0,0,0,0,0,0,0,0,0,0,0,0,0,0,0,0,0,0,0,0,0,0,0,0,0,0,0,0,0,0,0,0,0,0,0,0,0,0,0,0,0,0,0,0,0,0,0,0,0,0,0,0,0,0,0,0,0,0,0,0,0,0,0,0,0,0,0,0,0,0,0,0,0,0,0,0,0,0,0,0,0,0,0,0,0,0,0,0,0,0,0,0,0,0,0,0,0,0,0,0,0,0,0,0,0,0,0,0,0,0,0,0,0,0,0,0,0,0,0,0,0,0,0,0,0,0,0,0,0,0,0,0,0,0,0,0,0,0,0,0,0,0,0,0,0,0,0,0,0,0,0,0,0,0,0,0,0,0,0,0,0,0,0,0,0,0,0,0,0,0,0,0,0,0,0,0,0,0,0,0,0,0,0,0,0,0,0,0,0,0,0,0,0,0,0,0,0,0,0,0,0,0,0,0,0,0,0,0,0,0,0,0,0,0,0,0,0,0,0,0,0,0,0,0,0,0,0,0,0,0,0,0,0,0,0,0,0,0,0,0,0,0,0,0,0,0,0,0,0,0,0,0,0,0,0,0,0,0,0,0,0,0,0,0,0,0,0,0,0,0,0,0,0,0,0,0,0,0,0,0,0,0,0,0,0,0,0,0,0,0,0,0,0,0,0,0,0,0,0,0,0,0,0,0,0,0,0,0,0,0,0,0,0,0,0,0,0,0,0,0,0,0,0,0,0,0,0,0,0,0,0,0,0,0,0,0,0,0,0,0,0,0,0,0,0,0,0,0,0,0,0,0,0,0,0,0,0,0,0,0,0,0,0,0,0,0,0,0,0,0,0,0,0,0,0,0,0,0,0,0,0,0,0,0,0,0,0,0,0,0,0,0,0,0,0,0,0,0,0,0,0,0,0,0,0,0,0,0,0,0,0,0,0,0,0,0,0,0,0,0,0,0,0,0,0,0,0,0,0,0,0,0,0,0,0,0,0,0,0,0,0,0,0,0,0,0,0,0,0,0,0,0,0,0,0,0,0,0,0,0,0,0,0,0,0,0,0,0,0,0,0,0,0,0,0,0,0,0,0,0,0,0,0,0,0,0,0,0,0,0,0,0,0,0,0,0,0,0,0,0,0,0,0,0,0,0,0,0,0,0,0,0,0,0,0,0,0,0,0,0,0,0,0,0,0,0,0,0,0,0,0,0,0,0,0,0,0,0,0,0,0,0,0,0,0,0,0,0,0,0,0,0,0,0,0,0,0,0,0,0,0,0,0,0,0,0,0,0,0,0,0,0,0,0,0,0,0,0,0,0,0,0,0,0,0,0,0,0,0,0,0,0,0,0,0,0,0,0,0,0,0,0,0,0,0,0,0,0,0,0,0,0,0,0,0,0,0,0,0,0,0,0,0,0,0,0,0,0,0,0,0,0,0,0,0,0,0,0,0,0,0,0,0,0,0,0,0,0,0,0,0,0,0,0,0,0,0,0,0],"trees":[{"base_weights":[-4.555967E0,-8.268124E2,1.5420696E3,-1.1490468E3,-1.7775943E2,8.9511945E2,2.0236202E3,-1.2688693E3,-8.745233E2,-4.3264612E2,1.1120778E2,6.58878E2,1.2575162E3,1.6652352E3,2.1001558E3,-6.507515E1,-5.8022987E1,-4.8977825E1,-7.7859796E2,-5.402566E2,-2.936452E2,-3.5840012E2,1.5191177E2,-3.087025E2,7.474858E2,7.605756E2,1.3461241E3,1.5566191E3,1.7518616E3,1.6457689E3,2.1576802E3,-3.8525234E1,-4.2648197E1,-2.6228216E1,-3.5471256E1,-4.495825E1,-1.4504668E1,-5.331254E1,1.5770101E1,8.238993E0,4.9566755E-1,-5.7092403E1,4.119094E1,2.3158604E1,3.9112923E1,-3.3698696E1,5.5873653E1,6.808489E1,5.6022987E1,7.948092E1,4.09014E1,8.8423325E1,6.205384E1,-1.056276E1,9.341563E1,8.982725E1,1.09109276E2],"categories":[],"categories_nodes":[],"categories_segments":[],"categories_sizes":[],"default_left":[0,0,0,0,0,0,0,0,0,0,0,0,0,0,0,0,0,0,0,0,0,0,0,0,0,0,0,0,0,0,0,0,0,0,0,0,0,0,0,0,0,0,0,0,0,0,0,0,0,0,0,0,0,0,0,0,0],"id":0,"left_children":[1,3,5,7,9,11,13,15,17,19,21,23,25,27,29,-1,-1,-1,31,33,35,37,39,41,43,45,47,49,51,53,55,-1,-1,-1,-1,-1,-1,-1,-1,-1,-1,-1,-1,-1,-1,-1,-1,-1,-1,-1,-1,-1,-1,-1,-1,-1,-1],"loss_changes":[4.1085546E10,4.4113367E9,3.491793E9,4.6253466E8,5.1555174E8,4.0900173E8,1.7281638E8,3.3195008E7,4.2420224E7,5.5470016E7,6.2770484E7,2.488626E8,8.210995E7,7.9616E6,1.3479936E8,0E0,0E0,0E0,6.93888E5,5.189248E6,3.234048E6,1.2529754E8,5.516648E6,2.311681E8,2.5905792E7,1.482054E8,4.10112E6,1.1202944E7,3.0976E6,2.4794266E8,3.762995E7,0E0,0E0,0E0,0E0,0E0,0E0,0E0,0E0,0E0,0E0,0E0,0E0,0E0,0E0,0E0,0E0,0E0,0E0,0E0,0E0,0E0,0E0,0E0,0E0,0E0,0E0],"parents":[2147483647,0,0,1,1,2,2,3,3,4,4,5,5,6,6,7,7,8,8,9,9,10,10,11,11,12,12,13,13,14,14,18,18,19,19,20,20,21,21,22,22,23,23,24,24,25,25,26,26,27,27,28,28,29,29,30,30],"right_children":[2,4,6,8,10,12,14,16,18,20,22,24,26,28,30,-1,-1,-1,32,34,36,38,40,42,44,46,48,50,52,54,56,-1,-1,-1,-1,-1,-1,-1,-1,-1,-1,-1,-1,-1,-1,-1,-1,-1,-1,-1,-1,-1,-1,-1,-1,-1,-1],"split_conditions":[8.873811E0,6.430356E0,1.112535E1,4.86272E0,7.651274E0,1.019187E1,1.178779E1,3.95978E0,5.674057E0,7.116954E0,2E0,2E0,3E0,1.141146E1,2E0,-6.507515E1,-5.8022987E1,-4.8977825E1,1.2E1,1.2E1,3.172439E0,7.268347E1,1.2E1,5.755198E1,3E0,4.441116E1,1.2E1,2.384696E2,2.384696E2,4.498747E1,3.240505E1,-3.8525234E1,-4.2648197E1,-2.6228216E1,-3.5471256E1,-4.495825E1,-1.4504668E1,-5.331254E1,1.5770101E1,8.238993E0,4.9566755E-1,-5.7092403E1,4.119094E1,2.3158604E1,3.9112923E1,-3.3698696E1,5.5873653E1,6.808489E1,5.6022987E1,7.948092E1,4.09014E1,8.8423325E1,6.205384E1,-1.056276E1,9.341563E1,8.982725E1,1.09109276E2],"split_indices":[0,0,0,0,0,0,0,0,0,0,3,3,3,0,3,0,0,0,3,3,1,1,3,1,3,1,3,1,1,1,1,0,0,0,0,0,0,0,0,0,0,0,0,0,0,0,0,0,0,0,0,0,0,0,0,0,0],"split_type":[0,0,0,0,0,0,0,0,0,0,0,0,0,0,0,0,0,0,0,0,0,0,0,0,0,0,0,0,0,0,0,0,0,0,0,0,0,0,0,0,0,0,0,0,0,0,0,0,0,0,0,0,0,0,0,0,0],"sum_hessian":[3.2305E4,2.1092E4,1.1213E4,1.4094E4,6.998E3,4.786E3,6.427E3,9.809E3,4.285E3,3.718E3,3.28E3,2.899E3,1.887E3,1.135E3,5.292E3,7.531E3,2.278E3,2.041E3,2.244E3,2.094E3,1.624E3,2.61E2,3.019E3,2.43E2,2.656E3,2.87E2,1.6E3,5.12E2,6.23E2,5.98E2,4.694E3,2.034E3,2.1E2,1.92E3,1.74E2,8E0,1.616E3,1.27E2,1.34E2,2.768E3,2.51E2,1.4E2,1.03E2,2.91E2,2.365E3,5.7E1,2.3E2,1.492E3,1.08E2,4.89E2,2.3E1,6.01E2,2.2E1,6.4E1,5.34E2,3.03E2,4.391E3],"tree_param":{"num_deleted":"0","num_feature":"4","num_nodes":"57","size_leaf_vector":"1"}},{"base_weights":[2.3742145E-1,1.3001698E2,-8.117877E2,-6.467439E1,6.509821E2,-4.947109E2,-9.0672943E2,-3.851753E2,2.650588E2,9.8436035E2,2.5048793E2,-9.30267E2,-4.0498337E2,-1.0242747E3,-3.891031E2,-8.7745776E2,8.6290656E2,-6.515357E2,1.4509814E3,-5.376171E2,1.8451372E3,-7.2430084E2,1.7396443E3,-5.7094307E1,-2.1078319E2,-1.1373363E3,7.6357E2,-5.8082256E1,-1.6206721E2,-1.0506254E3,1.0795706E3,-4.105573E1,-5.335148E1,-1.743535E1,5.2743E1,-2.8255995E1,-4.8337032E1,7.514325E1,4.3849422E1,-3.0229294E1,-2.3344742E1,9.822259E1,8.8271736E1,-4.803506E1,-3.2424084E1,6.996645E1,9.562005E1,-6.526221E0,-2.2326649E1,-5.697785E1,-1.8516224E1,2.703508E1,4.510584E1,-2.97981E1,-5.6416945E0,-4.9882206E1,-5.6882565E1,6.957802E1,3.4091763E1],"categories":[],"categories_nodes":[],"categories_segments":[],"categories_sizes":[],"default_left":[0,0,0,0,0,0,0,0,0,0,0,0,0,0,0,0,0,0,0,0,0,0,0,0,0,0,0,0,0,0,0,0,0,0,0,0,0,0,0,0,0,0,0,0,0,0,0,0,0,0,0,0,0,0,0,0,0,0,0],"id":1,"left_children":[1,3,5,7,9,11,13,15,17,19,21,23,25,27,29,31,33,35,37,39,41,43,45,-1,47,49,51,-1,53,55,57,-1,-1,-1,-1,-1,-1,-1,-1,-1,-1,-1,-1,-1,-1,-1,-1,-1,-1,-1,-1,-1,-1,-1,-1,-1,-1,-1,-1],"loss_changes":[3.4078108E9,2.8279398E9,1.3369421E8,2.1450849E9,1.0124726E9,3.9838E7,2.0817638E8,6.324867E9,1.0876482E10,5.4234255E9,5.00497E9,2.6404208E7,7.325718E8,3.3061965E8,6.190465E8,7.797146E7,6.776215E8,1.5318886E8,1.2858573E8,6.80304E6,2.1676032E7,3.6729984E7,7.751603E7,0E0,7.17477E5,4.73984E5,9.701856E6,0E0,8.157156E6,8.89184E5,2.362088E7,0E0,0E0,0E0,0E0,0E0,0E0,0E0,0E0,0E0,0E0,0E0,0E0,0E0,0E0,0E0,0E0,0E0,0E0,0E0,0E0,0E0,0E0,0E0,0E0,0E0,0E0,0E0,0E0],"parents":[2147483647,0,0,1,1,2,2,3,3,4,4,5,5,6,6,7,7,8,8,9,9,10,10,11,11,12,12,13,13,14,14,15,15,16,16,17,17,18,18,19,19,20,20,21,21,22,22,24,24,25,25,26,26,28,28,29,29,30,30],"right_children":[2,4,6,8,10,12,14,16,18,20,22,24,26,28,30,32,34,36,38,40,42,44,46,-1,48,50,52,-1,54,56,58,-1,-1,-1,-1,-1,-1,-1,-1,-1,-1,-1,-1,-1,-1,-1,-1,-1,-1,-1,-1,-1,-1,-1,-1,-1,-1,-1,-1],"split_conditions":[2.326796E2,1.73624E2,1.4E1,8E0,1.4E1,3E0,4.3E1,8.333549E0,8.816468E0,9.304846E0,9.035743E0,6.015432E0,7.075486E0,6.220505E0,7.822051E0,7.867284E1,2E0,1.2E1,1.2E1,3E0,1.964905E2,6E0,1.1E1,-5.7094307E1,2.565133E2,4E0,2E0,-5.8082256E1,5E0,2.95123E2,1.2E1,-4.105573E1,-5.335148E1,-1.743535E1,5.2743E1,-2.8255995E1,-4.8337032E1,7.514325E1,4.3849422E1,-3.0229294E1,-2.3344742E1,9.822259E1,8.8271736E1,-4.803506E1,-3.2424084E1,6.996645E1,9.562005E1,-6.526221E0,-2.2326649E1,-5.697785E1,-1.8516224E1,2.703508E1,4.510584E1,-2.97981E1,-5.6416945E0,-4.9882206E1,-5.6882565E1,6.957802E1,3.4091763E1],"split_indices":[1,1,2,3,2,2,2,0,0,0,0,0,0,0,0,1,3,3,3,3,1,3,3,0,1,3,3,0,3,1,3,0,0,0,0,0,0,0,0,0,0,0,0,0,0,0,0,0,0,0,0,0,0,0,0,0,0,0,0],"split_type":[0,0,0,0,0,0,0,0,0,0,0,0,0,0,0,0,0,0,0,0,0,0,0,0,0,0,0,0,0,0,0,0,0,0,0,0,0,0,0,0,0,0,0,0,0,0,0,0,0,0,0,0,0,0,0,0,0,0,0],"sum_hessian":[3.2335E4,2.788E4,4.455E3,2.0296E4,7.584E3,1.028E3,3.427E3,1.0292E4,1.0004E4,4.138E3,3.446E3,1.74E2,8.54E2,2.792E3,6.35E2,7.381E3,2.911E3,5.643E3,4.361E3,1.495E3,2.643E3,2.083E3,1.363E3,1.34E2,4E1,5.25E2,3.29E2,2.408E3,3.84E2,4.38E2,1.97E2,5.694E3,1.687E3,3.98E2,2.513E3,4.431E3,1.212E3,3.998E3,3.63E2,7.64E2,7.31E2,1.049E3,1.594E3,5.03E2,1.58E3,4.62E2,9.01E2,3.1E1,9E0,5.23E2,2E0,1.28E2,2.01E2,3.8E1,3.46E2,2.8E2,1.58E2,1.09E2,8.8E1],"tree_param":{"num_deleted":"0","num_feature":"4","num_nodes":"59","size_leaf_vector":"1"}},{"base_weights":[-1.324997E0,-1.6847664E2,2.3521541E2,-7.5797015E2,1.4590334E3,-6.7802655E2,1.4107745E3,-7.280998E2,-1.01513824E3,1.0766058E3,1.5547056E3,-6.1464655E2,-8.6643115E2,1.4355022E3,2.7890503E1,-7.897396E2,-6.0596075E2,-1.0707582E3,-2.9943878E1,1.5030779E3,-7.4372864E2,1.6476338E3,1.2921674E3,-2.594874E2,-6.3300037E2,-7.963205E2,-5.349301E1,1.3878651E3,1.6073643E3,-3.365846E1,-4.622227E1,-1.7186033E1,-3.333758E1,-5.078381E1,-5.6182198E1,8.990202E1,6.970382E1,-3.297276E1,-6.6714165E1,1.0101539E2,8.003801E1,6.6815926E1,4.5056118E1,-1.8201109E1,-5.6264563E0,-3.4396355E1,-2.5785297E1,-5.2578304E1,-3.6783504E1,7.252038E1,6.403483E1,9.5713165E1,7.2663185E1],"categories":[],"categories_nodes":[],"categories_segments":[],"categories_sizes":[],"default_left":[0,0,0,0,0,0,0,0,0,0,0,0,0,0,0,0,0,0,0,0,0,0,0,0,0,0,0,0,0,0,0,0,0,0,0,0,0,0,0,0,0,0,0,0,0,0,0,0,0,0,0,0,0],"id":2,"left_children":[1,3,5,7,9,11,13,15,17,19,21,23,25,27,-1,29,31,33,-1,35,37,39,41,43,45,47,-1,49,51,-1,-1,-1,-1,-1,-1,-1,-1,-1,-1,-1,-1,-1,-1,-1,-1,-1,-1,-1,-1,-1,-1,-1,-1],"loss_changes":[1.2741158E9,1.8116622E10,1.4325599E10,1.057449E8,1.820334E8,8.914509E7,1.2224922E8,9.304986E7,3.269824E7,7.836502E8,9.580032E7,3.648947E7,2.6075648E7,4.4181504E7,0E0,1.2897229E8,6.6263936E7,2.555392E6,0E0,2.3761024E7,8.67556E6,4.849101E7,1.6993152E7,4.22974E6,3.4087296E7,2.102336E7,0E0,2.7942912E7,5.510528E7,0E0,0E0,0E0,0E0,0E0,0E0,0E0,0E0,0E0,0E0,0E0,0E0,0E0,0E0,0E0,0E0,0E0,0E0,0E0,0E0,0E0,0E0,0E0,0E0],"parents":[2147483647,0,0,1,1,2,2,3,3,4,4,5,5,6,6,7,7,8,8,9,9,10,10,11,11,12,12,13,13,15,15,16,16,17,17,19,19,20,20,21,21,22,22,23,23,24,24,25,25,27,27,28,28],"right_children":[2,4,6,8,10,12,14,16,18,20,22,24,26,28,-1,30,32,34,-1,36,38,40,42,44,46,48,-1,50,52,-1,-1,-1,-1,-1,-1,-1,-1,-1,-1,-1,-1,-1,-1,-1,-1,-1,-1,-1,-1,-1,-1,-1,-1],"split_conditions":[8E0,9.36388E0,8.667021E0,2.9E1,2E0,1.2E1,5.2E1,2.1E1,3.1E1,4E0,1.8E1,3.3E1,5.2E1,4.8E1,2.7890503E1,1.4E1,6E0,3E1,-2.9943878E1,2E0,5E0,6E0,2.7E1,3.2E1,4.3E1,4.9E1,-5.349301E1,4.1E1,1.2E1,-3.365846E1,-4.622227E1,-1.7186033E1,-3.333758E1,-5.078381E1,-5.6182198E1,8.990202E1,6.970382E1,-3.297276E1,-6.6714165E1,1.0101539E2,8.003801E1,6.6815926E1,4.5056118E1,-1.8201109E1,-5.6264563E0,-3.4396355E1,-2.5785297E1,-5.2578304E1,-3.6783504E1,7.252038E1,6.403483E1,9.5713165E1,7.2663185E1],"split_indices":[3,0,0,2,3,3,2,2,2,2,2,2,2,2,0,2,3,2,0,2,2,2,2,2,2,2,0,2,3,0,0,0,0,0,0,0,0,0,0,0,0,0,0,0,0,0,0,0,0,0,0,0,0],"split_type":[0,0,0,0,0,0,0,0,0,0,0,0,0,0,0,0,0,0,0,0,0,0,0,0,0,0,0,0,0,0,0,0,0,0,0,0,0,0,0,0,0,0,0,0,0,0,0,0,0,0,0,0,0],"sum_hessian":[3.2223E4,1.8881E4,1.3342E4,1.3861E4,5.02E3,7.509E3,5.833E3,1.2422E4,1.439E3,1.007E3,4.013E3,5.622E3,1.887E3,5.668E3,1.65E2,8.252E3,4.17E3,1.268E3,1.71E2,8.16E2,1.91E2,2.96E3,1.053E3,2.77E2,5.345E3,1.407E3,4.8E2,4.445E3,1.223E3,4.427E3,3.825E3,7.86E2,3.384E3,6.31E2,6.37E2,2.16E2,6E2,1.69E2,2.2E1,3.26E2,2.634E3,9.44E2,1.09E2,1.61E2,1.16E2,3.637E3,1.708E3,2.67E2,1.14E3,2.799E3,1.646E3,4.05E2,8.18E2],"tree_param":{"num_deleted":"0","num_feature":"4","num_nodes":"53","size_leaf_vector":"1"}},{"base_weights":[-1.9476225E0,-7.6126166E2,1.2479735E3,-6.6409906E2,-8.660308E2,1.0797628E3,1.4997755E3,-7.8103455E2,-6.191121E2,-8.936248E2,-7.5542114E2,6.80629E1,1.2008158E3,1.5602953E3,1.3928326E3,-6.211124E2,-8.5438196E2,-5.940616E2,-9.8672656E2,-7.837853E2,-9.559824E2,-1.98006E1,-7.947846E2,-3.444002E2,4.578405E2,1.2272755E3,-3.3278217E1,1.3671349E3,1.6229445E3,8.922662E2,1.5272788E3,-4.2767784E1,-2.1252811E1,-4.772086E1,-3.8763874E1,-3.355151E1,-2.6672144E1,-4.2472485E1,-5.571864E1,-4.249666E1,-2.9342533E1,-5.1355053E1,-4.6639175E1,-3.8450497E1,-4.7766174E1,3.0898792E1,-4.000531E1,2.8572733E1,-6.0577175E1,5.5457043E1,6.429806E1,7.185006E1,-5.932673E1,9.6765854E1,7.8556816E1,-6.1302956E1,4.6776966E1,6.827965E1,8.122715E1],"categories":[],"categories_nodes":[],"categories_segments":[],"categories_sizes":[],"default_left":[0,0,0,0,0,0,0,0,0,0,0,0,0,0,0,0,0,0,0,0,0,0,0,0,0,0,0,0,0,0,0,0,0,0,0,0,0,0,0,0,0,0,0,0,0,0,0,0,0,0,0,0,0,0,0,0,0,0,0],"id":3,"left_children":[1,3,5,7,9,11,13,15,17,19,21,23,25,27,29,31,33,35,37,39,41,-1,43,45,47,49,-1,51,53,55,57,-1,-1,-1,-1,-1,-1,-1,-1,-1,-1,-1,-1,-1,-1,-1,-1,-1,-1,-1,-1,-1,-1,-1,-1,-1,-1,-1,-1],"loss_changes":[3.0636388E10,2.0384256E8,5.150802E8,5.434675E7,2.8806144E7,8.960261E8,2.942976E7,3.3392256E7,6.877568E7,5.216205E7,2.7060736E7,1.2603972E8,3.2353997E8,3.5416576E7,1.180265E8,4.1565824E7,1.4928256E7,3.255424E7,7.44688E6,3.601536E7,7.163904E6,0E0,6.477696E6,1.6758602E8,7.712758E7,4.3249664E7,0E0,1.387278E8,3.487744E7,3.5797024E7,1.9750912E7,0E0,0E0,0E0,0E0,0E0,0E0,0E0,0E0,0E0,0E0,0E0,0E0,0E0,0E0,0E0,0E0,0E0,0E0,0E0,0E0,0E0,0E0,0E0,0E0,0E0,0E0,0E0,0E0],"parents":[2147483647,0,0,1,1,2,2,3,3,4,4,5,5,6,6,7,7,8,8,9,9,10,10,11,11,12,12,13,13,14,14,15,15,16,16,17,17,18,18,19,19,20,20,22,22,23,23,24,24,25,25,27,27,28,28,29,29,30,30],"right_children":[2,4,6,8,10,12,14,16,18,20,22,24,26,28,30,32,34,36,38,40,42,-1,44,46,48,50,-1,52,54,56,58,-1,-1,-1,-1,-1,-1,-1,-1,-1,-1,-1,-1,-1,-1,-1,-1,-1,-1,-1,-1,-1,-1,-1,-1,-1,-1,-1,-1],"split_conditions":[8.468281E0,8.074483E1,1.660137E2,2.1E1,4.3E1,3E0,1.4E1,9E0,5E1,1.4E1,4.4E1,2E0,5.2E1,2E0,4E1,6E0,1.6E1,8E0,5.2E1,1.1E1,1.9E1,-1.98006E1,5.2E1,3E0,9E0,3.2E1,-3.3278217E1,4E0,6E0,1.5E1,4.8E1,-4.2767784E1,-2.1252811E1,-4.772086E1,-3.8763874E1,-3.355151E1,-2.6672144E1,-4.2472485E1,-5.571864E1,-4.249666E1,-2.9342533E1,-5.1355053E1,-4.6639175E1,-3.8450497E1,-4.7766174E1,3.0898792E1,-4.000531E1,2.8572733E1,-6.0577175E1,5.5457043E1,6.429806E1,7.185006E1,-5.932673E1,9.6765854E1,7.8556816E1,-6.1302956E1,4.6776966E1,6.827965E1,8.122715E1],"split_indices":[0,1,1,2,2,3,2,2,2,2,2,3,2,3,2,2,2,3,2,2,2,0,2,2,2,2,0,2,2,2,2,0,0,0,0,0,0,0,0,0,0,0,0,0,0,0,0,0,0,0,0,0,0,0,0,0,0,0,0],"split_type":[0,0,0,0,0,0,0,0,0,0,0,0,0,0,0,0,0,0,0,0,0,0,0,0,0,0,0,0,0,0,0,0,0,0,0,0,0,0,0,0,0,0,0,0,0,0,0,0,0,0,0,0,0,0,0,0,0,0,0],"sum_hessian":[3.2278E4,2.008E4,1.2198E4,1.0422E4,9.658E3,7.316E3,4.882E3,2.891E3,7.531E3,7.724E3,1.934E3,7.82E2,6.534E3,3.109E3,1.773E3,9.12E2,1.979E3,7.053E3,4.78E2,2.802E3,4.922E3,1.92E2,1.742E3,3.8E2,4.02E2,6.443E3,9.1E1,7.67E2,2.342E3,3.77E2,1.396E3,4.14E2,4.98E2,8.69E2,1.11E3,3.103E3,3.95E3,2.34E2,2.44E2,2.095E3,7.07E2,1.2E3,3.722E3,1.506E3,2.36E2,1.22E2,2.58E2,3.77E2,2.5E1,2.145E3,4.298E3,7.47E2,2E1,3.28E2,2.014E3,7E0,3.7E2,5.3E2,8.66E2],"tree_param":{"num_deleted":"0","num_feature":"4","num_nodes":"59","size_leaf_vector":"1"}},{"base_weights":[4.2627177E0,1.2071913E2,-7.1134174E2,-5.704546E2,1.3885527E3,-9.5323987E2,6.884497E2,-9.417618E2,-6.3312917E0,8.3247424E2,1.7315216E3,-5.3156868E1,-5.170906E2,3.8505698E2,1.2469137E3,-9.655345E2,-9.239634E2,-3.5479138E2,2.0510723E1,3.5634384E2,9.23428E2,1.4071045E3,1.7700068E3,-4.963581E2,-9.4243805E2,4.0495834E2,1.9513882E2,6.498192E2,1.4399913E3,-4.576498E1,-4.88704E1,-4.570869E1,-5.1679573E1,-4.101793E1,9.892247E0,1.4292009E0,-2.7956436E1,-3.103656E1,3.5612286E1,4.7558884E1,-2.963568E1,-1.0104323E1,8.1725365E1,7.4087585E1,8.941315E1,-2.195838E1,-2.7477194E1,-2.4529804E1,-5.399879E1,1.728597E1,3.070756E1,2.133283E1,-3.057677E1,6.950967E1,-5.569105E1,7.4157104E1,3.924296E1],"categories":[],"categories_nodes":[],"categories_segments":[],"categories_sizes":[],"default_left":[0,0,0,0,0,0,0,0,0,0,0,0,0,0,0,0,0,0,0,0,0,0,0,0,0,0,0,0,0,0,0,0,0,0,0,0,0,0,0,0,0,0,0,0,0,0,0,0,0,0,0,0,0,0,0,0,0],"id":4,"left_children":[1,3,5,7,9,11,13,15,17,19,21,-1,23,25,27,29,31,33,35,37,39,41,43,45,47,49,51,53,55,-1,-1,-1,-1,-1,-1,-1,-1,-1,-1,-1,-1,-1,-1,-1,-1,-1,-1,-1,-1,-1,-1,-1,-1,-1,-1,-1,-1],"loss_changes":[2.6889454E9,2.431793E10,1.5298053E9,3.7619497E9,1.8658734E9,1.8403507E8,1.1236285E8,3.69152E6,6.6696812E7,1.6150502E8,7.310746E7,0E0,6.384192E6,1.55756E6,2.6041088E7,1.858048E6,5.727232E6,1.3137987E8,3.0999608E7,2.0943555E8,1.3254477E8,2.370898E8,2.581504E7,2.018656E6,1.645256E6,4.633084E6,8.29157E6,7.8587864E7,3.81136E6,0E0,0E0,0E0,0E0,0E0,0E0,0E0,0E0,0E0,0E0,0E0,0E0,0E0,0E0,0E0,0E0,0E0,0E0,0E0,0E0,0E0,0E0,0E0,0E0,0E0,0E0,0E0,0E0],"parents":[2147483647,0,0,1,1,2,2,3,3,4,4,5,5,6,6,7,7,8,8,9,9,10,10,12,12,13,13,14,14,15,15,16,16,17,17,18,18,19,19,20,20,21,21,22,22,23,23,24,24,25,25,26,26,27,27,28,28],"right_children":[2,4,6,8,10,12,14,16,18,20,22,-1,24,26,28,30,32,34,36,38,40,42,44,46,48,50,52,54,56,-1,-1,-1,-1,-1,-1,-1,-1,-1,-1,-1,-1,-1,-1,-1,-1,-1,-1,-1,-1,-1,-1,-1,-1,-1,-1,-1,-1],"split_conditions":[2.305448E2,9.36388E0,7.779937E0,6.548336E0,1.127258E1,5.29388E0,1.037517E1,2.2E1,2E0,3E0,2E0,-5.3156868E1,5.2E1,5.1E1,6E0,7E0,5.1E1,7.542144E1,5.2E1,4.713418E1,5.2E1,4.441116E1,2.946157E1,2.641368E2,2.488198E2,4E1,3.531913E2,4E0,5.1E1,-4.576498E1,-4.88704E1,-4.570869E1,-5.1679573E1,-4.101793E1,9.892247E0,1.4292009E0,-2.7956436E1,-3.103656E1,3.5612286E1,4.7558884E1,-2.963568E1,-1.0104323E1,8.1725365E1,7.4087585E1,8.941315E1,-2.195838E1,-2.7477194E1,-2.4529804E1,-5.399879E1,1.728597E1,3.070756E1,2.133283E1,-3.057677E1,6.950967E1,-5.569105E1,7.4157104E1,3.924296E1],"split_indices":[1,0,0,0,0,0,0,2,3,3,3,0,2,2,2,2,2,1,2,1,2,1,1,1,1,2,1,2,2,0,0,0,0,0,0,0,0,0,0,0,0,0,0,0,0,0,0,0,0,0,0,0,0,0,0,0,0],"split_type":[0,0,0,0,0,0,0,0,0,0,0,0,0,0,0,0,0,0,0,0,0,0,0,0,0,0,0,0,0,0,0,0,0,0,0,0,0,0,0,0,0,0,0,0,0,0,0,0,0,0,0,0,0,0,0,0,0],"sum_hessian":[3.2264E4,2.7749E4,4.515E3,1.7959E4,9.79E3,3.85E3,6.65E2,1.083E4,7.129E3,3.736E3,6.054E3,3.074E3,7.76E2,4.32E2,2.33E2,4.614E3,6.216E3,5.09E2,6.62E3,6E2,3.136E3,6.46E2,5.408E3,7.42E2,3.4E1,3.9E2,4.2E1,5.8E1,1.75E2,8.97E2,3.717E3,5.715E3,5.01E2,2.76E2,2.33E2,6.53E3,9E1,1.6E2,4.4E2,3.08E3,5.6E1,8E1,5.66E2,3.27E2,5.081E3,3.62E2,3.8E2,9E0,2.5E1,3.06E2,8.4E1,3.3E1,9E0,4.1E1,1.7E1,1.63E2,1.2E1],"tree_param":{"num_deleted":"0","num_feature":"4","num_nodes":"57","size_leaf_vector":"1"}},{"base_weights":[2.7443838E0,1.1301696E2,-6.670546E2,-5.28422E2,1.3432452E3,-9.2557196E2,5.7928864E2,-6.3122327E2,-4.7080072E2,9.9021643E2,1.3801442E3,-8.568859E2,-9.291476E2,7.489258E2,4.995513E2,-5.342924E2,-7.563162E2,-4.1921844E2,-6.12472E2,-5.0379697E2,1.4159724E3,1.27021E3,1.5608236E3,-3.3570694E1,-4.428334E1,-8.8816547E2,-9.624407E2,5.36143E2,1.2000261E3,3.201625E2,8.075312E2,-3.081108E1,-1.9950262E1,-3.4805344E1,-4.2496338E1,-1.9369347E1,-3.893893E1,-4.0548214E1,-2.262254E1,6.121876E1,-3.837752E1,7.780703E1,5.9739452E1,2.9083612E1,6.5148674E1,7.951064E1,7.019154E1,-4.9126595E1,-4.3917866E1,-5.0145794E1,-4.7517315E1,1.1381176E1,4.2280712E1,6.937557E1,3.562796E1,2.1539892E1,9.762902E0,1.5309466E1,4.627115E1],"categories":[],"categories_nodes":[],"categories_segments":[],"categories_sizes":[],"default_left":[0,0,0,0,0,0,0,0,0,0,0,0,0,0,0,0,0,0,0,0,0,0,0,0,0,0,0,0,0,0,0,0,0,0,0,0,0,0,0,0,0,0,0,0,0,0,0,0,0,0,0,0,0,0,0,0,0,0,0],"id":5,"left_children":[1,3,5,7,9,11,13,15,17,19,21,23,25,27,29,31,33,35,37,39,41,43,45,-1,-1,47,49,51,53,55,57,-1,-1,-1,-1,-1,-1,-1,-1,-1,-1,-1,-1,-1,-1,-1,-1,-1,-1,-1,-1,-1,-1,-1,-1,-1,-1,-1,-1],"loss_changes":[2.3856945E9,2.1886063E10,1.4717074E9,1.0768896E8,1.2244992E8,1.32608E5,1.0244096E7,7.895629E7,8.514125E7,5.750982E8,1.6889549E8,4.7296E5,4.034048E6,2.3257232E7,2.940972E7,4.0665024E7,1.5499904E7,9.778496E7,9.863834E7,9.255785E7,1.9935744E7,1.2002304E8,1.2763648E7,0E0,0E0,6.3552E5,8.832E3,1.6134236E7,6.231344E6,4.628112E6,1.1360152E7,0E0,0E0,0E0,0E0,0E0,0E0,0E0,0E0,0E0,0E0,0E0,0E0,0E0,0E0,0E0,0E0,0E0,0E0,0E0,0E0,0E0,0E0,0E0,0E0,0E0,0E0,0E0,0E0],"parents":[2147483647,0,0,1,1,2,2,3,3,4,4,5,5,6,6,7,7,8,8,9,9,10,10,11,11,12,12,13,13,14,14,15,15,16,16,17,17,18,18,19,19,20,20,21,21,22,22,25,25,26,26,27,27,28,28,29,29,30,30],"right_children":[2,4,6,8,10,12,14,16,18,20,22,24,26,28,30,32,34,36,38,40,42,44,46,-1,-1,48,50,52,54,56,58,-1,-1,-1,-1,-1,-1,-1,-1,-1,-1,-1,-1,-1,-1,-1,-1,-1,-1,-1,-1,-1,-1,-1,-1,-1,-1,-1,-1],"split_conditions":[2.305448E2,9.474714E0,7.238157E0,2.1E1,2E0,4E0,1.1E1,1.4E1,7.734284E1,4.767163E1,1.705505E2,2.357082E2,2.795037E2,9E0,2.795037E2,1.780302E2,7.867284E1,1.2E1,1.660137E2,1.742617E1,2.005457E2,3E0,2.144162E2,-3.3570694E1,-4.428334E1,3E0,5E0,2.669428E2,2.613624E2,2.488198E2,1E1,-3.081108E1,-1.9950262E1,-3.4805344E1,-4.2496338E1,-1.9369347E1,-3.893893E1,-4.0548214E1,-2.262254E1,6.121876E1,-3.837752E1,7.780703E1,5.9739452E1,2.9083612E1,6.5148674E1,7.951064E1,7.019154E1,-4.9126595E1,-4.3917866E1,-5.0145794E1,-4.7517315E1,1.1381176E1,4.2280712E1,6.937557E1,3.562796E1,2.1539892E1,9.762902E0,1.5309466E1,4.627115E1],"split_indices":[1,0,0,2,3,2,2,2,1,1,1,1,1,2,1,1,1,3,1,1,1,3,1,0,0,3,3,1,1,1,3,0,0,0,0,0,0,0,0,0,0,0,0,0,0,0,0,0,0,0,0,0,0,0,0,0,0,0,0],"split_type":[0,0,0,0,0,0,0,0,0,0,0,0,0,0,0,0,0,0,0,0,0,0,0,0,0,0,0,0,0,0,0,0,0,0,0,0,0,0,0,0,0,0,0,0,0,0,0,0,0,0,0,0,0,0,0,0,0,0,0],"sum_hessian":[3.2298E4,2.7733E4,4.565E3,1.8229E4,9.504E3,3.781E3,7.84E2,6.544E3,1.1685E4,9.02E2,8.602E3,1.99E2,3.582E3,2.48E2,5.36E2,3.69E3,2.854E3,8.569E3,3.116E3,2E2,7.02E2,5.353E3,3.249E3,3E1,1.69E2,1.618E3,1.964E3,1.7E2,7.8E1,3.4E2,1.96E2,2.296E3,1.394E3,1.742E3,1.112E3,7.874E3,6.95E2,1.389E3,1.727E3,2.6E1,1.74E2,4.26E2,2.76E2,2.44E2,5.109E3,2.729E3,5.2E2,1.43E2,1.475E3,4.33E2,1.531E3,8.6E1,8.4E1,5.5E1,2.3E1,1.79E2,1.61E2,3.8E1,1.58E2],"tree_param":{"num_deleted":"0","num_feature":"4","num_nodes":"59","size_leaf_vector":"1"}},{"base_weights":[-5.3083944E-1,-7.073949E2,1.00095245E3,-7.480061E2,-6.361562E2,6.2242847E2,1.0408346E3,-7.3047076E2,-8.973319E2,-5.912168E2,-7.7191693E2,1.0908381E3,-7.701866E2,1.6325977E3,1.02332043E3,-7.01533E2,-8.718051E2,-8.3885974E2,-9.551201E2,-5.3135266E2,-7.2569006E2,-7.2330054E2,-9.0431616E2,-7.6964014E2,1.2386971E3,8.6520764E2,-8.929996E2,7.862238E2,1.676648E3,9.2530444E2,1.2100763E3,-4.661037E1,-1.3811325E1,-4.7621906E1,-1.3384227E1,-4.667219E1,-2.1218473E1,-4.9764797E1,-2.9591202E1,-4.448553E1,-1.1946024E1,-4.630521E1,-1.1295866E1,-4.8581387E1,-1.7443708E1,-4.893575E1,-3.6130543E1,-5.511874E1,-2.5682392E1,3.0120207E1,7.14071E1,-4.0435436E1,7.517864E1,-4.629947E1,-1.203864E0,2.6506058E1,5.3604992E1,3.5406967E1,8.508764E1,2.2332108E1,7.179645E1,2.8403616E1,8.217165E1],"categories":[],"categories_nodes":[],"categories_segments":[],"categories_sizes":[],"default_left":[0,0,0,0,0,0,0,0,0,0,0,0,0,0,0,0,0,0,0,0,0,0,0,0,0,0,0,0,0,0,0,0,0,0,0,0,0,0,0,0,0,0,0,0,0,0,0,0,0,0,0,0,0,0,0,0,0,0,0,0,0,0,0],"id":6,"left_children":[1,3,5,7,9,11,13,15,17,19,21,23,25,27,29,31,33,35,37,39,41,43,45,47,49,51,53,55,57,59,61,-1,-1,-1,-1,-1,-1,-1,-1,-1,-1,-1,-1,-1,-1,-1,-1,-1,-1,-1,-1,-1,-1,-1,-1,-1,-1,-1,-1,-1,-1,-1,-1],"loss_changes":[2.2876195E10,5.433037E7,2.0120371E8,3.0923776E7,4.154931E7,8.3384557E8,1.2368589E8,4.355123E7,3.466432E6,4.1289856E7,1.0346368E7,2.6393792E8,6.5445536E7,1.1581696E7,2.1396378E8,8.795689E8,8.893696E7,2.4537728E7,8.577024E6,3.7558387E8,1.5924787E8,1.1635123E8,5.443776E6,5.481372E6,1.0594035E8,2.5793058E7,8.577392E6,8.22716E5,6.770048E6,1.8838113E9,1.1233398E9,0E0,0E0,0E0,0E0,0E0,0E0,0E0,0E0,0E0,0E0,0E0,0E0,0E0,0E0,0E0,0E0,0E0,0E0,0E0,0E0,0E0,0E0,0E0,0E0,0E0,0E0,0E0,0E0,0E0,0E0,0E0,0E0],"parents":[2147483647,0,0,1,1,2,2,3,3,4,4,5,5,6,6,7,7,8,8,9,9,10,10,11,11,12,12,13,13,14,14,15,15,16,16,17,17,18,18,19,19,20,20,21,21,22,22,23,23,24,24,25,25,26,26,27,27,28,28,29,29,30,30],"right_children":[2,4,6,8,10,12,14,16,18,20,22,24,26,28,30,32,34,36,38,40,42,44,46,48,50,52,54,56,58,60,62,-1,-1,-1,-1,-1,-1,-1,-1,-1,-1,-1,-1,-1,-1,-1,-1,-1,-1,-1,-1,-1,-1,-1,-1,-1,-1,-1,-1,-1,-1,-1,-1],"split_conditions":[8.047498E0,3.1E1,2E0,2.9E1,1.2E1,4E0,6E0,2.488198E2,3E1,8.074483E1,5.2E1,4.284802E1,1.309428E1,8.207011E1,1.660137E2,5.889812E0,5.800632E0,5.484604E0,4.807667E0,6.058993E0,5.848375E0,5.627838E0,5.385932E0,1.092312E1,1.04845E1,9.474714E0,1.308214E1,9.652143E0,1.105832E1,1.054363E1,1.127258E1,-4.661037E1,-1.3811325E1,-4.7621906E1,-1.3384227E1,-4.667219E1,-2.1218473E1,-4.9764797E1,-2.9591202E1,-4.448553E1,-1.1946024E1,-4.630521E1,-1.1295866E1,-4.8581387E1,-1.7443708E1,-4.893575E1,-3.6130543E1,-5.511874E1,-2.5682392E1,3.0120207E1,7.14071E1,-4.0435436E1,7.517864E1,-4.629947E1,-1.203864E0,2.6506058E1,5.3604992E1,3.5406967E1,8.508764E1,2.2332108E1,7.179645E1,2.8403616E1,8.217165E1],"split_indices":[0,2,3,2,3,2,2,1,2,1,2,1,1,1,1,0,0,0,0,0,0,0,0,0,0,0,0,0,0,0,0,0,0,0,0,0,0,0,0,0,0,0,0,0,0,0,0,0,0,0,0,0,0,0,0,0,0,0,0,0,0,0,0],"split_type":[0,0,0,0,0,0,0,0,0,0,0,0,0,0,0,0,0,0,0,0,0,0,0,0,0,0,0,0,0,0,0,0,0,0,0,0,0,0,0,0,0,0,0,0,0,0,0,0,0,0,0,0,0,0,0,0,0,0,0,0,0,0,0],"sum_hessian":[3.2313E4,1.8943E4,1.337E4,1.2059E4,6.884E3,1.276E3,1.2094E4,1.0797E4,1.262E3,5.176E3,1.708E3,9.55E2,3.21E2,3.45E2,1.1749E4,8.967E3,1.83E3,6.35E2,6.27E2,3.585E3,1.591E3,1.254E3,4.54E2,7E1,8.85E2,2.2E1,2.99E2,1.8E1,3.27E2,7.709E3,4.04E3,5.813E3,3.154E3,1.614E3,2.16E2,5.16E2,1.19E2,5.63E2,6.4E1,1.61E3,1.975E3,1.135E3,4.56E2,7.53E2,5.01E2,3.19E2,1.35E2,2.9E1,4.1E1,2.04E2,6.81E2,6E0,1.6E1,2.88E2,1.1E1,1.1E1,7E0,9E0,3.18E2,3.98E3,3.729E3,1.629E3,2.411E3],"tree_param":{"num_deleted":"0","num_feature":"4","num_nodes":"63","size_leaf_vector":"1"}},{"base_weights":[2.3138429E-1,9.763483E1,-6.129137E2,-2.5177505E1,2.578763E2,-6.6594666E2,-2.9591815E2,-2.9279352E2,4.6929187E2,2.876161E2,-4.2582486E2,-3.983409E2,-7.638676E2,4.279913E2,-4.8238013E2,-7.492963E2,4.9193625E2,-5.600162E2,1.2939227E3,-4.1454666E2,1.2059436E3,-7.680772E2,1.677071E3,-8.5460034E2,5.399595E2,-8.796595E2,-1.0055434E2,-5.869599E2,1.1251627E3,-8.094191E2,5.452004E2,-4.592136E1,-2.1026075E1,1.0655683E1,6.0748535E1,-4.1923317E1,-2.0130272E0,3.298367E1,7.430462E1,-3.801997E1,3.474783E0,4.0151573E1,7.70302E1,-4.396758E1,-1.5314273E1,3.485797E1,8.4768524E1,-4.7353134E1,-2.4524683E1,1.6304321E1,6.2478027E1,-4.654553E1,-3.3875427E1,-1.6401955E1,1.2947962E1,-4.0335873E1,-5.1313586E0,2.8969349E1,7.461188E1,-4.691913E1,-2.4334625E1,3.5532196E1,-7.7849215E-1],"categories":[],"categories_nodes":[],"categories_segments":[],"categories_sizes":[],"default_left":[0,0,0,0,0,0,0,0,0,0,0,0,0,0,0,0,0,0,0,0,0,0,0,0,0,0,0,0,0,0,0,0,0,0,0,0,0,0,0,0,0,0,0,0,0,0,0,0,0,0,0,0,0,0,0,0,0,0,0,0,0,0,0],"id":7,"left_children":[1,3,5,7,9,11,13,15,17,19,21,23,25,27,29,31,33,35,37,39,41,43,45,47,49,51,53,55,57,59,61,-1,-1,-1,-1,-1,-1,-1,-1,-1,-1,-1,-1,-1,-1,-1,-1,-1,-1,-1,-1,-1,-1,-1,-1,-1,-1,-1,-1,-1,-1,-1,-1],"loss_changes":[1.9308863E9,5.4904845E8,7.431027E7,2.0902569E9,2.4625498E8,9.916685E7,8.618973E7,3.6718812E9,4.709013E9,7.481003E9,3.6474726E8,4.3670394E8,2.1327949E8,9.335538E7,1.7082318E8,3.599406E8,7.59767E8,3.5715E8,3.74421E8,1.1007565E9,6.7659776E8,2.2083376E7,9.1216E4,2.2630432E7,5.0281896E7,2.3871872E7,3.3943464E7,5.664738E6,1.4761976E7,1.556696E7,1.1422492E7,0E0,0E0,0E0,0E0,0E0,0E0,0E0,0E0,0E0,0E0,0E0,0E0,0E0,0E0,0E0,0E0,0E0,0E0,0E0,0E0,0E0,0E0,0E0,0E0,0E0,0E0,0E0,0E0,0E0,0E0,0E0,0E0],"parents":[2147483647,0,0,1,1,2,2,3,3,4,4,5,5,6,6,7,7,8,8,9,9,10,10,11,11,12,12,13,13,14,14,15,15,16,16,17,17,18,18,19,19,20,20,21,21,22,22,23,23,24,24,25,25,26,26,27,27,28,28,29,29,30,30],"right_children":[2,4,6,8,10,12,14,16,18,20,22,24,26,28,30,32,34,36,38,40,42,44,46,48,50,52,54,56,58,60,62,-1,-1,-1,-1,-1,-1,-1,-1,-1,-1,-1,-1,-1,-1,-1,-1,-1,-1,-1,-1,-1,-1,-1,-1,-1,-1,-1,-1,-1,-1,-1,-1],"split_conditions":[2.326796E2,8E0,4.3E1,1.705505E2,5.2E1,1.4E1,4.4E1,7.478735E0,8.667021E0,9.142945E0,1.170958E1,7.075486E0,6.058993E0,8.281458E0,7.822051E0,5.484604E0,1.067251E1,6.501832E0,1.112535E1,6.828897E0,1.141146E1,1.812518E2,1.178779E1,4.914511E0,1.148163E1,4.445142E0,7.561939E0,5.757468E0,1.025005E1,5.627838E0,3.531913E2,-4.592136E1,-2.1026075E1,1.0655683E1,6.0748535E1,-4.1923317E1,-2.0130272E0,3.298367E1,7.430462E1,-3.801997E1,3.474783E0,4.0151573E1,7.70302E1,-4.396758E1,-1.5314273E1,3.485797E1,8.4768524E1,-4.7353134E1,-2.4524683E1,1.6304321E1,6.2478027E1,-4.654553E1,-3.3875427E1,-1.6401955E1,1.2947962E1,-4.0335873E1,-5.1313586E0,2.8969349E1,7.461188E1,-4.691913E1,-2.4334625E1,3.5532196E1,-7.7849215E-1],"split_indices":[1,3,2,1,2,2,2,0,0,0,0,0,0,0,0,0,0,0,0,0,0,1,0,0,0,0,0,0,0,0,1,0,0,0,0,0,0,0,0,0,0,0,0,0,0,0,0,0,0,0,0,0,0,0,0,0,0,0,0,0,0,0,0],"split_type":[0,0,0,0,0,0,0,0,0,0,0,0,0,0,0,0,0,0,0,0,0,0,0,0,0,0,0,0,0,0,0,0,0,0,0,0,0,0,0,0,0,0,0,0,0,0,0,0,0,0,0,0,0,0,0,0,0,0,0,0,0,0,0],"sum_hessian":[3.2329E4,2.7898E4,4.431E3,1.5794E4,1.2104E4,3.795E3,6.36E2,1.0248E4,5.546E3,1.16E4,5.04E2,1.018E3,2.777E3,1.3E2,5.06E2,6.479E3,3.769E3,2.467E3,3.079E3,6.574E3,5.026E3,4.34E2,7E1,6.85E2,3.33E2,2.364E3,4.13E2,5.3E1,7.7E1,3.84E2,1.22E2,4.277E3,2.202E3,2.721E3,1.048E3,1.606E3,8.61E2,7.17E2,2.362E3,3.834E3,2.74E3,2.282E3,2.744E3,3.49E2,8.5E1,2E0,6.8E1,5.45E2,1.4E2,2.57E2,7.6E1,1.883E3,4.81E2,2.53E2,1.6E2,3.6E1,1.7E1,3.2E1,4.5E1,2.73E2,1.11E2,9.4E1,2.8E1],"tree_param":{"num_deleted":"0","num_feature":"4","num_nodes":"63","size_leaf_vector":"1"}},{"base_weights":[-2.191551E0,-6.453925E2,9.028644E2,-5.825306E2,-7.064011E2,7.7538007E2,1.1034606E3,-8.2743787E2,-2.5555444E2,-8.706299E2,-2.9478918E2,3.543098E2,1.2804564E3,4.8034244E2,1.4222941E3,-9.278127E2,-6.588384E2,-4.0193478E2,-7.4366E1,-9.155785E2,-7.144712E2,-4.2665344E2,-4.335931E1,2.3476146E2,6.25173E2,1.0029966E3,1.4385156E3,3.586155E2,7.858852E2,1.0930583E3,1.4779321E3,-4.764105E1,-4.2301666E1,-3.618922E1,-2.9618551E1,-2.3015318E1,-1.5171381E1,-6.6646333E0,2.0246732E0,-4.626092E1,-4.2924603E1,-3.918462E1,-3.3195312E1,-2.5869892E1,-1.7478361E1,-6.369195E0,4.976725E0,3.25309E0,1.3729874E1,2.5161785E1,3.6600716E1,4.536931E1,5.4624763E1,5.9529278E1,7.620718E1,1.3801758E1,2.1973309E1,3.33439E1,4.339063E1,5.6881256E1,3.8796516E1,7.105065E1,7.717918E1],"categories":[],"categories_nodes":[],"categories_segments":[],"categories_sizes":[],"default_left":[0,0,0,0,0,0,0,0,0,0,0,0,0,0,0,0,0,0,0,0,0,0,0,0,0,0,0,0,0,0,0,0,0,0,0,0,0,0,0,0,0,0,0,0,0,0,0,0,0,0,0,0,0,0,0,0,0,0,0,0,0,0,0],"id":8,"left_children":[1,3,5,7,9,11,13,15,17,19,21,23,25,27,29,31,33,35,37,39,41,43,45,47,49,51,53,55,57,59,61,-1,-1,-1,-1,-1,-1,-1,-1,-1,-1,-1,-1,-1,-1,-1,-1,-1,-1,-1,-1,-1,-1,-1,-1,-1,-1,-1,-1,-1,-1,-1,-1],"loss_changes":[1.8796487E10,7.197645E7,3.4217984E8,7.44682E8,6.46932E8,1.7445248E9,1.0343926E9,8.938598E7,1.05662E8,4.737741E7,9.055992E7,1.4479168E8,1.6213606E8,6.5363456E7,6.1508096E7,6.006272E6,8.153024E6,1.2533344E7,1.2066482E7,2.127872E6,4.84896E6,1.2354432E7,1.1310884E7,2.0985936E7,1.7479872E7,1.0620544E7,4.8584704E7,8.318016E6,4.315744E6,6.212224E6,8.812032E6,0E0,0E0,0E0,0E0,0E0,0E0,0E0,0E0,0E0,0E0,0E0,0E0,0E0,0E0,0E0,0E0,0E0,0E0,0E0,0E0,0E0,0E0,0E0,0E0,0E0,0E0,0E0,0E0,0E0,0E0,0E0,0E0],"parents":[2147483647,0,0,1,1,2,2,3,3,4,4,5,5,6,6,7,7,8,8,9,9,10,10,11,11,12,12,13,13,14,14,15,15,16,16,17,17,18,18,19,19,20,20,21,21,22,22,23,23,24,24,25,25,26,26,27,27,28,28,29,29,30,30],"right_children":[2,4,6,8,10,12,14,16,18,20,22,24,26,28,30,32,34,36,38,40,42,44,46,48,50,52,54,56,58,60,62,-1,-1,-1,-1,-1,-1,-1,-1,-1,-1,-1,-1,-1,-1,-1,-1,-1,-1,-1,-1,-1,-1,-1,-1,-1,-1,-1,-1,-1,-1,-1,-1],"split_conditions":[8.000391E0,7.787326E1,1.660137E2,6.015432E0,5.484604E0,1.067251E1,1.092312E1,4.642049E0,7.116954E0,4.204541E0,7.075486E0,9.770372E0,1.170958E1,1.000563E1,1.178779E1,4.013009E0,5.435516E0,6.709988E0,7.694588E0,3.65413E0,4.698415E0,6.18073E0,7.651274E0,3.290191E1,1.019187E1,1.112535E1,4.075284E1,8.873811E0,1.037517E1,2.384696E2,1.527221E1,-4.764105E1,-4.2301666E1,-3.618922E1,-2.9618551E1,-2.3015318E1,-1.5171381E1,-6.6646333E0,2.0246732E0,-4.626092E1,-4.2924603E1,-3.918462E1,-3.3195312E1,-2.5869892E1,-1.7478361E1,-6.369195E0,4.976725E0,3.25309E0,1.3729874E1,2.5161785E1,3.6600716E1,4.536931E1,5.4624763E1,5.9529278E1,7.620718E1,1.3801758E1,2.1973309E1,3.33439E1,4.339063E1,5.6881256E1,3.8796516E1,7.105065E1,7.717918E1],"split_indices":[0,1,1,0,0,0,0,0,0,0,0,0,0,0,0,0,0,0,0,0,0,0,0,1,0,0,1,0,0,1,0,0,0,0,0,0,0,0,0,0,0,0,0,0,0,0,0,0,0,0,0,0,0,0,0,0,0,0,0,0,0,0,0],"split_type":[0,0,0,0,0,0,0,0,0,0,0,0,0,0,0,0,0,0,0,0,0,0,0,0,0,0,0,0,0,0,0,0,0,0,0,0,0,0,0,0,0,0,0,0,0,0,0,0,0,0,0,0,0,0,0,0,0,0,0,0,0,0,0],"sum_hessian":[3.2287E4,1.8874E4,1.3413E4,9.301E3,9.573E3,8.204E3,5.209E3,5.317E3,3.984E3,6.842E3,2.731E3,4.475E3,3.729E3,1.764E3,3.445E3,3.33E3,1.987E3,2.203E3,1.781E3,5.309E3,1.533E3,1.791E3,9.4E2,3.106E3,1.369E3,1.356E3,2.373E3,1.263E3,5.01E2,5.01E2,2.944E3,2.542E3,7.88E2,1E3,9.87E2,1.381E3,8.22E2,1.177E3,6.04E2,4.529E3,7.8E2,6.41E2,8.92E2,8.2E2,9.71E2,5.92E2,3.48E2,5.91E2,2.515E3,6.42E2,7.27E2,6.61E2,6.95E2,6.13E2,1.76E3,6.27E2,6.36E2,2.08E2,2.93E2,4.37E2,6.4E1,1.589E3,1.355E3],"tree_param":{"num_deleted":"0","num_feature":"4","num_nodes":"63","size_leaf_vector":"1"}},{"base_weights":[-2.9603684E0,8.7581955E1,-5.514734E2,-4.7060495E2,1.0365564E3,-7.34551E2,5.582793E2,-5.439956E2,-4.2950058E2,6.709587E2,1.0746434E3,-6.467935E2,-7.405647E2,4.8057114E2,7.290887E2,-4.7101175E2,-6.324101E2,-3.9225763E2,-5.3053436E2,-6.870251E2,1.1146764E3,9.792889E2,1.2386112E3,-5.327313E2,-7.0205365E2,-6.947521E2,-7.7876874E2,5.9431445E2,2.544128E2,9.5620514E2,4.7071957E2,-4.004324E1,-5.7888393E0,-3.8987633E1,-4.563707E0,-3.438952E1,2.66666E0,-3.9473488E1,-2.483875E0,3.728035E1,-4.3606342E1,2.5600052E1,6.0509E1,3.3667217E1,6.953221E1,3.1638071E1,7.116359E1,-4.051805E1,-6.9398904E0,-4.029009E1,-1.1148713E1,-4.114318E1,-1.9288717E1,-4.1801247E1,-2.2823559E1,1.9115229E1,5.479513E1,4.416929E0,2.4703173E1,1.7859772E1,6.3611824E1,3.2453274E1,-1.6908587E1],"categories":[],"categories_nodes":[],"categories_segments":[],"categories_sizes":[],"default_left":[0,0,0,0,0,0,0,0,0,0,0,0,0,0,0,0,0,0,0,0,0,0,0,0,0,0,0,0,0,0,0,0,0,0,0,0,0,0,0,0,0,0,0,0,0,0,0,0,0,0,0,0,0,0,0,0,0,0,0,0,0,0,0],"id":9,"left_children":[1,3,5,7,9,11,13,15,17,19,21,23,25,27,29,31,33,35,37,39,41,43,45,47,49,51,53,55,57,59,61,-1,-1,-1,-1,-1,-1,-1,-1,-1,-1,-1,-1,-1,-1,-1,-1,-1,-1,-1,-1,-1,-1,-1,-1,-1,-1,-1,-1,-1,-1,-1,-1],"loss_changes":[1.6050781E9,1.4694508E10,9.3072934E8,5.2458496E7,1.4234112E8,1.595648E6,8.263984E6,4.014208E7,4.1938816E7,5.864557E8,1.4423962E8,1.2648E6,5.885824E6,1.1398864E7,1.134456E7,4.0263898E8,2.2565107E8,1.0782872E9,3.7523654E8,6.429411E7,4.1570176E7,7.3995366E8,3.8138163E8,9.621242E6,8.369344E6,6.6143424E7,3.641459E7,3.127084E7,6.005924E6,1.9611976E7,1.4068688E7,0E0,0E0,0E0,0E0,0E0,0E0,0E0,0E0,0E0,0E0,0E0,0E0,0E0,0E0,0E0,0E0,0E0,0E0,0E0,0E0,0E0,0E0,0E0,0E0,0E0,0E0,0E0,0E0,0E0,0E0,0E0,0E0],"parents":[2147483647,0,0,1,1,2,2,3,3,4,4,5,5,6,6,7,7,8,8,9,9,10,10,11,11,12,12,13,13,14,14,15,15,16,16,17,17,18,18,19,19,20,20,21,21,22,22,23,23,24,24,25,25,26,26,27,27,28,28,29,29,30,30],"right_children":[2,4,6,8,10,12,14,16,18,20,22,24,26,28,30,32,34,36,38,40,42,44,46,48,50,52,54,56,58,60,62,-1,-1,-1,-1,-1,-1,-1,-1,-1,-1,-1,-1,-1,-1,-1,-1,-1,-1,-1,-1,-1,-1,-1,-1,-1,-1,-1,-1,-1,-1,-1,-1],"split_conditions":[2.305448E2,9.084689E0,7.779937E0,2.1E1,2E0,2E0,4E1,4E0,7.787326E1,4.66399E1,1.660137E2,2.462898E2,2.795037E2,4E0,1.2E1,6.100305E0,6.306017E0,6.86411E0,6.18073E0,1.742617E1,1.04845E1,1.148163E1,1.127258E1,5.757468E0,5.889812E0,5.177675E0,5.028961E0,1.148163E1,9.084689E0,9.770372E0,3.531913E2,-4.004324E1,-5.7888393E0,-3.8987633E1,-4.563707E0,-3.438952E1,2.66666E0,-3.9473488E1,-2.483875E0,3.728035E1,-4.3606342E1,2.5600052E1,6.0509E1,3.3667217E1,6.953221E1,3.1638071E1,7.116359E1,-4.051805E1,-6.9398904E0,-4.029009E1,-1.1148713E1,-4.114318E1,-1.9288717E1,-4.1801247E1,-2.2823559E1,1.9115229E1,5.479513E1,4.416929E0,2.4703173E1,1.7859772E1,6.3611824E1,3.2453274E1,-1.6908587E1],"split_indices":[1,0,0,2,3,3,2,3,1,1,1,1,1,3,3,0,0,0,0,1,0,0,0,0,0,0,0,0,0,0,1,0,0,0,0,0,0,0,0,0,0,0,0,0,0,0,0,0,0,0,0,0,0,0,0,0,0,0,0,0,0,0,0],"split_type":[0,0,0,0,0,0,0,0,0,0,0,0,0,0,0,0,0,0,0,0,0,0,0,0,0,0,0,0,0,0,0,0,0,0,0,0,0,0,0,0,0,0,0,0,0,0,0,0,0,0,0,0,0,0,0,0,0,0,0,0,0,0,0],"sum_hessian":[3.2317E4,2.7739E4,4.578E3,1.7466E4,1.0273E4,3.93E3,6.48E2,6.266E3,1.12E4,9.71E2,9.302E3,2.59E2,3.671E3,4.48E2,2E2,3.436E3,2.83E3,8.187E3,3.013E3,2.39E2,7.32E2,5.886E3,3.416E3,8.8E1,1.71E2,1.678E3,1.993E3,2.97E2,1.51E2,1.05E2,9.5E1,1.781E3,1.655E3,2.224E3,6.06E2,4.922E3,3.265E3,1.958E3,1.055E3,2.7E1,2.12E2,1.01E2,6.31E2,3.377E3,2.509E3,7.99E2,2.617E3,5.1E1,3.7E1,1.4E2,3.1E1,1.185E3,4.93E2,1.691E3,3.02E2,2.1E2,8.7E1,9E1,6.1E1,3.7E1,6.8E1,7.8E1,1.7E1],"tree_param":{"num_deleted":"0","num_feature":"4","num_nodes":"63","size_leaf_vector":"1"}},{"base_weights":[1.5398158E0,8.364844E1,-5.229942E2,-5.2401514E2,8.717029E2,-7.087538E2,4.496037E2,-5.592735E2,-4.6875388E2,7.437203E2,1.0894386E3,-6.7132E2,-7.400506E2,3.2948822E2,6.36956E2,-7.632103E2,-1.9259526E2,-7.457157E2,-1.5745341E2,3.7451874E2,1.190675E3,5.0319907E2,1.2999908E3,-7.8343604E2,-3.967765E2,-7.9174115E2,-4.2301813E2,1.9954984E2,1.01446277E3,3.1925943E2,1.1019341E3,-4.1766922E1,-2.9108435E1,-1.7320644E1,-1.7241941E-1,-4.236053E1,-2.8071442E1,-1.4214772E1,5.348453E0,-3.1778793E1,2.2582098E1,4.8081566E1,6.652383E1,1.9087164E1,3.6396175E1,5.0650127E1,6.678512E1,-4.0960968E1,-3.4818535E1,-2.4767288E1,-1.2678443E1,-4.0502995E1,-3.3294247E1,-2.6564192E1,-1.45151005E1,-1.6255133E1,1.3023363E1,-4.5582943E1,6.252192E1,5.851112E0,2.4729065E1,5.853741E1,1.4835895E1],"categories":[],"categories_nodes":[],"categories_segments":[],"categories_sizes":[],"default_left":[0,0,0,0,0,0,0,0,0,0,0,0,0,0,0,0,0,0,0,0,0,0,0,0,0,0,0,0,0,0,0,0,0,0,0,0,0,0,0,0,0,0,0,0,0,0,0,0,0,0,0,0,0,0,0,0,0,0,0,0,0,0,0],"id":10,"left_children":[1,3,5,7,9,11,13,15,17,19,21,23,25,27,29,31,33,35,37,39,41,43,45,47,49,51,53,55,57,59,61,-1,-1,-1,-1,-1,-1,-1,-1,-1,-1,-1,-1,-1,-1,-1,-1,-1,-1,-1,-1,-1,-1,-1,-1,-1,-1,-1,-1,-1,-1,-1,-1],"loss_changes":[1.3857812E9,1.3323154E10,7.871338E8,3.0345728E7,3.3673523E8,3.787648E6,1.5520368E7,7.166116E8,5.2796992E8,1.2589591E9,5.5257754E8,5.127763E7,3.214528E7,3.7891476E7,3.9828576E7,7.993907E7,9.970436E7,6.014451E7,9.679299E7,3.2599418E8,1.0925568E8,3.2092928E7,3.2437248E7,3.133888E6,6.762944E6,3.386816E6,3.868976E6,1.1622409E7,3.2047176E7,5.72155E6,5.747752E6,0E0,0E0,0E0,0E0,0E0,0E0,0E0,0E0,0E0,0E0,0E0,0E0,0E0,0E0,0E0,0E0,0E0,0E0,0E0,0E0,0E0,0E0,0E0,0E0,0E0,0E0,0E0,0E0,0E0,0E0,0E0,0E0],"parents":[2147483647,0,0,1,1,2,2,3,3,4,4,5,5,6,6,7,7,8,8,9,9,10,10,11,11,12,12,13,13,14,14,15,15,16,16,17,17,18,18,19,19,20,20,21,21,22,22,23,23,24,24,25,25,26,26,27,27,28,28,29,29,30,30],"right_children":[2,4,6,8,10,12,14,16,18,20,22,24,26,28,30,32,34,36,38,40,42,44,46,48,50,52,54,56,58,60,62,-1,-1,-1,-1,-1,-1,-1,-1,-1,-1,-1,-1,-1,-1,-1,-1,-1,-1,-1,-1,-1,-1,-1,-1,-1,-1,-1,-1,-1,-1,-1,-1],"split_conditions":[2.326796E2,8.333549E0,7.39813E0,8E0,1.660137E2,2.795037E2,2.795037E2,5.92852E0,6.100305E0,1.086121E1,1.092312E1,5.127349E0,5.127349E0,1.148163E1,1.037517E1,4.589913E0,7.238157E0,4.750535E0,7.561939E0,5E0,1.192967E1,1.000563E1,1.170958E1,3.858574E0,6.389287E0,4.204541E0,6.100305E0,6E0,6E0,8.873811E0,5.1E1,-4.1766922E1,-2.9108435E1,-1.7320644E1,-1.7241941E-1,-4.236053E1,-2.8071442E1,-1.4214772E1,5.348453E0,-3.1778793E1,2.2582098E1,4.8081566E1,6.652383E1,1.9087164E1,3.6396175E1,5.0650127E1,6.678512E1,-4.0960968E1,-3.4818535E1,-2.4767288E1,-1.2678443E1,-4.0502995E1,-3.3294247E1,-2.6564192E1,-1.45151005E1,-1.6255133E1,1.3023363E1,-4.5582943E1,6.252192E1,5.851112E0,2.4729065E1,5.853741E1,1.4835895E1],"split_indices":[1,0,0,3,1,1,1,0,0,0,0,0,0,0,0,0,0,0,0,2,0,0,0,0,0,0,0,2,2,0,2,0,0,0,0,0,0,0,0,0,0,0,0,0,0,0,0,0,0,0,0,0,0,0,0,0,0,0,0,0,0,0,0],"split_type":[0,0,0,0,0,0,0,0,0,0,0,0,0,0,0,0,0,0,0,0,0,0,0,0,0,0,0,0,0,0,0,0,0,0,0,0,0,0,0,0,0,0,0,0,0,0,0,0,0,0,0,0,0,0,0,0,0,0,0,0,0,0,0],"sum_hessian":[3.2174E4,2.782E4,4.354E3,1.5708E4,1.2112E4,3.656E3,6.98E2,9.584E3,6.124E3,7.631E3,4.481E3,1.675E3,1.981E3,4.27E2,2.71E2,6.158E3,3.426E3,3.24E3,2.884E3,4.18E3,3.451E3,1.185E3,3.296E3,1.188E3,4.87E2,1.702E3,2.79E2,3.6E2,6.7E1,1.62E2,1.09E2,4.401E3,1.757E3,1.889E3,1.537E3,2.087E3,1.153E3,1.949E3,9.35E2,2.96E2,3.884E3,1.311E3,2.14E3,7.71E2,4.14E2,3.68E2,2.928E3,8.36E2,3.52E2,2.87E2,2E2,1.481E3,2.21E2,1.52E2,1.27E2,3.7E1,3.23E2,7E0,6E1,7.6E1,8.6E1,1E2,9E0],"tree_param":{"num_deleted":"0","num_feature":"4","num_nodes":"63","size_leaf_vector":"1"}},{"base_weights":[4.456941E0,-5.466306E2,7.894039E2,-4.929378E2,-6.024107E2,6.803654E2,9.596995E2,-5.845219E2,-4.665824E2,-5.7383655E2,-6.856E2,-1.283334E1,7.6919946E2,1.0167018E3,5.31688E2,-3.811195E1,-3.1343854E2,-6.903629E2,-1.7291179E2,-3.7569546E1,-2.334511E2,-3.7000225E1,-2.9231677E2,-3.421114E2,2.7150882E2,3.7749213E2,1.1291787E3,4.137298E2,1.2240892E3,2.8926083E2,8.917039E2,-1.4057998E1,-4.0448532E1,-3.4299725E1,-3.922075E1,-2.873433E1,-7.9817057E0,-5.9076166E0,-1.244279E1,-1.3944156E1,-3.044556E1,-3.1941984E1,3.851516E1,3.372856E1,-7.373409E0,2.0637165E1,-2.914018E1,5.6852753E1,-3.371144E1,2.7573359E1,1.8812937E1,5.3144024E1,6.2854084E1,4.478625E0,1.6425934E1,2.2240665E1,5.1479275E1],"categories":[],"categories_nodes":[],"categories_segments":[],"categories_sizes":[],"default_left":[0,0,0,0,0,0,0,0,0,0,0,0,0,0,0,0,0,0,0,0,0,0,0,0,0,0,0,0,0,0,0,0,0,0,0,0,0,0,0,0,0,0,0,0,0,0,0,0,0,0,0,0,0,0,0,0,0],"id":11,"left_children":[1,3,5,7,9,11,13,15,17,19,21,23,25,27,29,-1,31,33,35,-1,37,-1,39,41,43,45,47,49,51,53,55,-1,-1,-1,-1,-1,-1,-1,-1,-1,-1,-1,-1,-1,-1,-1,-1,-1,-1,-1,-1,-1,-1,-1,-1,-1,-1],"loss_changes":[1.4017142E10,5.672141E7,2.4753715E8,2.3154944E7,2.1791744E7,5.0200704E8,1.2669338E8,1.040624E8,4.955241E8,4.200425E8,5.072845E7,8.688571E7,1.0184865E9,5.748429E8,5.3417824E7,0E0,1.351232E7,1.220096E6,1.7315192E7,0E0,4.206704E6,0E0,1.067814E6,1.4242858E8,8.419868E7,1.1743459E8,5.424691E7,5.877504E6,1.6869888E7,2.863288E6,1.4761664E7,0E0,0E0,0E0,0E0,0E0,0E0,0E0,0E0,0E0,0E0,0E0,0E0,0E0,0E0,0E0,0E0,0E0,0E0,0E0,0E0,0E0,0E0,0E0,0E0,0E0,0E0],"parents":[2147483647,0,0,1,1,2,2,3,3,4,4,5,5,6,6,7,7,8,8,9,9,10,10,11,11,12,12,13,13,14,14,16,16,17,17,18,18,20,20,22,22,23,23,24,24,25,25,26,26,27,27,28,28,29,29,30,30],"right_children":[2,4,6,8,10,12,14,16,18,20,22,24,26,28,30,-1,32,34,36,-1,38,-1,40,42,44,46,48,50,52,54,56,-1,-1,-1,-1,-1,-1,-1,-1,-1,-1,-1,-1,-1,-1,-1,-1,-1,-1,-1,-1,-1,-1,-1,-1,-1,-1],"split_conditions":[8.096587E0,8.074483E1,1.705505E2,2.946157E1,2.697489E2,1E1,2.305448E2,5.530937E0,6.220505E0,5.435516E0,5.674057E0,2E0,1.04845E1,1.061554E1,1.037517E1,-3.811195E1,5.1E1,5.1E1,5E0,-3.7569546E1,4E0,-3.7000225E1,5.2E1,4.767163E1,8E0,5.1E1,5.2E1,8E0,4E0,6E0,6E0,-1.4057998E1,-4.0448532E1,-3.4299725E1,-3.922075E1,-2.873433E1,-7.9817057E0,-5.9076166E0,-1.244279E1,-1.3944156E1,-3.044556E1,-3.1941984E1,3.851516E1,3.372856E1,-7.373409E0,2.0637165E1,-2.914018E1,5.6852753E1,-3.371144E1,2.7573359E1,1.8812937E1,5.3144024E1,6.2854084E1,4.478625E0,1.6425934E1,2.2240665E1,5.1479275E1],"split_indices":[0,1,1,1,1,2,1,0,0,0,0,3,0,0,0,0,2,2,2,0,2,0,2,1,2,2,2,2,2,2,2,0,0,0,0,0,0,0,0,0,0,0,0,0,0,0,0,0,0,0,0,0,0,0,0,0,0],"split_type":[0,0,0,0,0,0,0,0,0,0,0,0,0,0,0,0,0,0,0,0,0,0,0,0,0,0,0,0,0,0,0,0,0,0,0,0,0,0,0,0,0,0,0,0,0,0,0,0,0,0,0,0,0,0,0,0,0],"sum_hessian":[3.2402E4,1.9037E4,1.3365E4,9.705E3,9.332E3,8.151E3,5.214E3,2.164E3,7.541E3,6.952E3,2.38E3,9.26E2,7.225E3,4.6E3,6.14E2,1.306E3,8.58E2,4.279E3,3.262E3,4.568E3,2.384E3,2.09E3,2.9E2,4.29E2,4.97E2,3.461E3,3.764E3,1.178E3,3.422E3,3.68E2,2.46E2,8.07E2,5.1E1,4.097E3,1.82E2,1.03E2,3.159E3,2.82E2,2.102E3,2.8E2,1E1,3.39E2,9E1,2.53E2,2.44E2,3.339E3,1.22E2,3.748E3,1.6E1,2.49E2,9.29E2,5.87E2,2.835E3,6.1E1,3.07E2,5.9E1,1.87E2],"tree_param":{"num_deleted":"0","num_feature":"4","num_nodes":"57","size_leaf_vector":"1"}},{"base_weights":[3.2890892E0,-5.386368E2,7.259742E2,-4.894546E2,-5.859717E2,4.9186023E2,7.967947E2,-5.671932E2,-4.6541766E2,-5.622431E2,-6.52803E2,-6.616566E2,6.347696E2,7.044748E2,8.8892975E2,-5.5473303E2,-3.716972E1,-5.355441E2,-4.4010992E2,-5.7822705E2,-5.0816495E2,-6.3128735E2,-6.64756E2,1.8100569E1,-6.655709E2,6.8443146E2,-6.258139E2,3.8430002E2,7.411641E2,9.478568E2,7.989861E2,-3.3668293E1,-2.6684662E1,-2.2993187E1,-2.8447805E1,-2.1150724E1,-3.0928028E1,-3.208315E1,-2.7122715E1,-1.5402747E1,-2.6324747E1,-3.3817627E1,-2.5974155E1,-3.593212E1,-3.225875E1,3.1166906E1,-3.8909344E1,2.9141584E1,4.1094627E1,1.0757809E1,-4.1447247E1,2.4306269E1,-5.6102882E1,3.847424E1,3.0748682E1,4.92842E1,2.5137196E1,2.9629715E1,4.886368E1],"categories":[],"categories_nodes":[],"categories_segments":[],"categories_sizes":[],"default_left":[0,0,0,0,0,0,0,0,0,0,0,0,0,0,0,0,0,0,0,0,0,0,0,0,0,0,0,0,0,0,0,0,0,0,0,0,0,0,0,0,0,0,0,0,0,0,0,0,0,0,0,0,0,0,0,0,0,0,0],"id":12,"left_children":[1,3,5,7,9,11,13,15,17,19,21,23,25,27,29,31,-1,33,35,37,39,41,43,-1,45,47,49,51,53,55,57,-1,-1,-1,-1,-1,-1,-1,-1,-1,-1,-1,-1,-1,-1,-1,-1,-1,-1,-1,-1,-1,-1,-1,-1,-1,-1,-1,-1],"loss_changes":[1.2644937E10,4.266752E7,2.2901043E8,1.6656384E7,1.4535168E7,5.305723E8,8.971418E7,4.272768E6,1.2049024E7,5.706496E6,2.11968E5,1.66344E6,1.7959808E8,6.209152E7,2.7397376E7,4.625216E6,0E0,4.368288E6,1.5272512E7,1.1794816E7,5.677312E6,4.16816E6,1.182336E6,0E0,5.1868784E7,3.798349E7,1.8798504E7,8.460064E7,1.6548608E7,5.345075E7,7.702592E7,0E0,0E0,0E0,0E0,0E0,0E0,0E0,0E0,0E0,0E0,0E0,0E0,0E0,0E0,0E0,0E0,0E0,0E0,0E0,0E0,0E0,0E0,0E0,0E0,0E0,0E0,0E0,0E0],"parents":[2147483647,0,0,1,1,2,2,3,3,4,4,5,5,6,6,7,7,8,8,9,9,10,10,11,11,12,12,13,13,14,14,15,15,17,17,18,18,19,19,20,20,21,21,22,22,24,24,25,25,26,26,27,27,28,28,29,29,30,30],"right_children":[2,4,6,8,10,12,14,16,18,20,22,24,26,28,30,32,-1,34,36,38,40,42,44,-1,46,48,50,52,54,56,58,-1,-1,-1,-1,-1,-1,-1,-1,-1,-1,-1,-1,-1,-1,-1,-1,-1,-1,-1,-1,-1,-1,-1,-1,-1,-1,-1,-1],"split_conditions":[7.912578E0,7.787326E1,4.767163E1,2.946157E1,2.669428E2,5E0,1.705505E2,5E1,2E1,4.3E1,2E1,2E0,5.2E1,3E0,4E0,8.397145E0,-3.716972E1,9E0,4.8E1,1.660137E2,4.4E1,1.9E1,2.8E1,1.8100569E1,1.309428E1,3.9E1,1.86354E1,9E0,4.2E1,2.357082E2,4.5E1,-3.3668293E1,-2.6684662E1,-2.2993187E1,-2.8447805E1,-2.1150724E1,-3.0928028E1,-3.208315E1,-2.7122715E1,-1.5402747E1,-2.6324747E1,-3.3817627E1,-2.5974155E1,-3.593212E1,-3.225875E1,3.1166906E1,-3.8909344E1,2.9141584E1,4.1094627E1,1.0757809E1,-4.1447247E1,2.4306269E1,-5.6102882E1,3.847424E1,3.0748682E1,4.92842E1,2.5137196E1,2.9629715E1,4.886368E1],"split_indices":[0,1,1,1,1,2,1,2,2,2,2,2,2,3,3,1,0,2,2,1,2,2,2,0,1,2,1,2,2,1,2,0,0,0,0,0,0,0,0,0,0,0,0,0,0,0,0,0,0,0,0,0,0,0,0,0,0,0,0],"split_type":[0,0,0,0,0,0,0,0,0,0,0,0,0,0,0,0,0,0,0,0,0,0,0,0,0,0,0,0,0,0,0,0,0,0,0,0,0,0,0,0,0,0,0,0,0,0,0,0,0,0,0,0,0,0,0,0,0,0,0],"sum_hessian":[3.2285E4,1.845E4,1.3835E4,9.054E3,9.396E3,3.215E3,1.062E4,2.133E3,6.921E3,6.941E3,2.455E3,3.54E2,2.861E3,5.309E3,5.311E3,1.996E3,1.37E2,1.83E3,5.091E3,5.35E3,1.591E3,8.96E2,1.559E3,1E0,3.53E2,2.753E3,1.08E2,5.47E2,4.762E3,3.203E3,2.108E3,2.96E2,1.7E3,5.65E2,1.265E3,4.649E3,4.42E2,1.923E3,3.427E3,1.35E2,1.456E3,6.35E2,2.61E2,4.06E2,1.153E3,2.8E1,3.25E2,1.586E3,1.167E3,2.1E1,8.7E1,5.13E2,3.4E1,3.885E3,8.77E2,2.951E3,2.52E2,9.79E2,1.129E3],"tree_param":{"num_deleted":"0","num_feature":"4","num_nodes":"59","size_leaf_vector":"1"}},{"base_weights":[-4.026747E-1,-9.918429E1,1.400907E2,1.49829E2,-2.7400272E2,1.9582973E2,-3.540759E2,-3.1932202E2,1.0141521E3,-5.78559E2,4.7972678E2,-2.8331757E2,9.7285034E2,-5.958273E2,5.352241E2,-5.036809E2,-2.8371243E2,-5.2565353E1,1.0697388E3,-5.4754175E2,-6.0934607E2,5.332611E2,1.827998E2,-2.3200307E2,-4.5706998E2,7.041894E2,9.9935516E2,-5.565704E2,-6.3824506E2,8.034918E1,6.1376953E2,-2.8949095E1,-1.9547119E0,-3.0475311E1,8.598668E0,-1.7620756E1,5.9660137E1,3.5041607E1,5.6956696E1,-3.558747E1,-1.6593414E1,-3.40796E1,-1.6714392E1,1.107437E1,4.7765423E1,2.53233E0,2.2299917E1,-2.6520771E1,6.32614E0,-3.096153E1,-1.6153519E-1,3.871492E1,-2.637126E1,3.589912E1,6.238447E1,-3.5463432E1,-1.694241E1,-3.485877E1,-2.3277391E1,6.3831134E0,-4.8852837E1,1.5862996E1,5.7463634E1],"categories":[],"categories_nodes":[],"categories_segments":[],"categories_sizes":[],"default_left":[0,0,0,0,0,0,0,0,0,0,0,0,0,0,0,0,0,0,0,0,0,0,0,0,0,0,0,0,0,0,0,0,0,0,0,0,0,0,0,0,0,0,0,0,0,0,0,0,0,0,0,0,0,0,0,0,0,0,0,0,0,0,0],"id":13,"left_children":[1,3,5,7,9,11,13,15,17,19,21,23,25,27,29,31,33,35,37,39,41,43,45,47,49,51,53,55,57,59,61,-1,-1,-1,-1,-1,-1,-1,-1,-1,-1,-1,-1,-1,-1,-1,-1,-1,-1,-1,-1,-1,-1,-1,-1,-1,-1,-1,-1,-1,-1,-1,-1],"loss_changes":[4.5059616E8,8.299373E8,3.6927405E8,3.1891607E9,2.5715016E9,4.48509E9,2.9248966E8,3.3325184E7,1.6412595E8,7.284992E6,5.1150464E7,6.6336064E7,3.2016384E7,1.424864E6,1.034764E7,2.8804048E7,6.347696E8,5.1969476E7,6.653056E7,1.4085811E8,7.916006E7,3.591424E8,1.715998E7,6.157862E8,1.2496202E8,3.632885E7,2.9117952E8,1.8477024E7,4.835216E6,2.326015E6,3.901327E7,0E0,0E0,0E0,0E0,0E0,0E0,0E0,0E0,0E0,0E0,0E0,0E0,0E0,0E0,0E0,0E0,0E0,0E0,0E0,0E0,0E0,0E0,0E0,0E0,0E0,0E0,0E0,0E0,0E0,0E0,0E0,0E0],"parents":[2147483647,0,0,1,1,2,2,3,3,4,4,5,5,6,6,7,7,8,8,9,9,10,10,11,11,12,12,13,13,14,14,15,15,16,16,17,17,18,18,19,19,20,20,21,21,22,22,23,23,24,24,25,25,26,26,27,27,28,28,29,29,30,30],"right_children":[2,4,6,8,10,12,14,16,18,20,22,24,26,28,30,32,34,36,38,40,42,44,46,48,50,52,54,56,58,60,62,-1,-1,-1,-1,-1,-1,-1,-1,-1,-1,-1,-1,-1,-1,-1,-1,-1,-1,-1,-1,-1,-1,-1,-1,-1,-1,-1,-1,-1,-1,-1,-1],"split_conditions":[8E0,4E0,2.242139E2,1.054363E1,7.39813E0,9.709181E0,7.822051E0,4.817136E1,4.441116E1,7.958701E1,7E0,1.2E1,2.946157E1,2.795037E2,1E1,1.3E1,6.789106E0,9E0,1.163558E1,5.127349E0,5.127349E0,1.013219E1,9.035743E0,6.990165E0,7.116954E0,5.2E1,1.185904E1,5.076405E0,4.589913E0,1.226673E1,1.061554E1,-2.8949095E1,-1.9547119E0,-3.0475311E1,8.598668E0,-1.7620756E1,5.9660137E1,3.5041607E1,5.6956696E1,-3.558747E1,-1.6593414E1,-3.40796E1,-1.6714392E1,1.107437E1,4.7765423E1,2.53233E0,2.2299917E1,-2.6520771E1,6.32614E0,-3.096153E1,-1.6153519E-1,3.871492E1,-2.637126E1,3.589912E1,6.238447E1,-3.5463432E1,-1.694241E1,-3.485877E1,-2.3277391E1,6.3831134E0,-4.8852837E1,1.5862996E1,5.7463634E1],"split_indices":[3,3,1,0,0,0,0,1,1,1,3,3,1,1,3,2,0,2,0,0,0,0,0,0,0,2,0,0,0,0,0,0,0,0,0,0,0,0,0,0,0,0,0,0,0,0,0,0,0,0,0,0,0,0,0,0,0,0,0,0,0,0,0],"split_type":[0,0,0,0,0,0,0,0,0,0,0,0,0,0,0,0,0,0,0,0,0,0,0,0,0,0,0,0,0,0,0,0,0,0,0,0,0,0,0,0,0,0,0,0,0,0,0,0,0,0,0,0,0,0,0,0,0,0,0,0,0,0,0],"sum_hessian":[3.2466E4,1.9063E4,1.3403E4,7.863E3,1.12E4,1.2045E4,1.358E3,5.097E3,2.766E3,7.977E3,3.223E3,7.451E3,4.594E3,1.068E3,2.9E2,8.23E2,4.274E3,1.37E2,2.629E3,3.983E3,3.994E3,2.73E3,4.93E2,5.754E3,1.697E3,4.15E2,4.179E3,5.62E2,5.06E2,4.3E1,2.47E2,7.08E2,1.15E2,2.492E3,1.782E3,1.11E2,2.6E1,4.18E2,2.211E3,2.26E3,1.723E3,3.162E3,8.32E2,1.571E3,1.159E3,3.29E2,1.64E2,3.14E3,2.614E3,1.25E3,4.47E2,3.93E2,2.2E1,1.961E3,2.218E3,3.29E2,2.33E2,3.75E2,1.31E2,4.2E1,1E0,1.6E2,8.7E1],"tree_param":{"num_deleted":"0","num_feature":"4","num_nodes":"63","size_leaf_vector":"1"}},{"base_weights":[-1.1802931E0,-9.7368904E1,1.3531102E2,1.4191106E2,-2.7030243E2,1.64157E2,-2.1004023E1,1.5590247E1,3.4971454E2,-2.2795001E2,-5.510959E2,3.2829034E2,1.11513016E2,-3.4623334E2,8.5506866E2,-3.8963147E2,9.701364E2,-5.3141504E2,4.7332803E2,-6.3490936E2,-9.658394E1,-1.3244627E2,9.273809E2,-4.2082492E2,7.7753125E2,-3.2196907E1,-5.056104E0,2.122511E1,4.725474E1,-2.8718616E1,5.500879E0,2.9012129E1,5.6373444E1,-3.290927E1,-1.48280325E1,1.0355792E1,4.3930813E1,-3.4105145E1,-2.5121975E1,-1.1164428E1,1.828305E1,-2.1384968E1,7.9799256E0,3.28903E1,5.9153473E1,-3.2444435E1,-7.6387024E0,1.9786114E1,5.3032894E1],"categories":[],"categories_nodes":[],"categories_segments":[],"categories_sizes":[],"default_left":[0,0,0,0,0,0,0,0,0,0,0,0,0,0,0,0,0,0,0,0,0,0,0,0,0,0,0,0,0,0,0,0,0,0,0,0,0,0,0,0,0,0,0,0,0,0,0,0,0],"id":14,"left_children":[1,3,5,7,9,11,-1,13,15,17,19,21,23,25,27,29,31,33,35,37,39,41,43,45,47,-1,-1,-1,-1,-1,-1,-1,-1,-1,-1,-1,-1,-1,-1,-1,-1,-1,-1,-1,-1,-1,-1,-1,-1],"loss_changes":[4.24996E8,7.857943E8,2.1445942E8,2.0912754E8,1.3096294E8,1.0988954E8,0E0,1.5056467E9,1.3820018E9,2.0390036E9,5.494672E7,8.5275776E8,3.4160307E9,2.5270573E8,5.747085E7,1.2698336E8,9.982541E7,1.9889408E8,3.120594E8,7.278112E6,1.3318143E7,1.5070702E8,9.17911E7,3.2726643E8,4.622492E8,0E0,0E0,0E0,0E0,0E0,0E0,0E0,0E0,0E0,0E0,0E0,0E0,0E0,0E0,0E0,0E0,0E0,0E0,0E0,0E0,0E0,0E0,0E0,0E0],"parents":[2147483647,0,0,1,1,2,2,3,3,4,4,5,5,7,7,8,8,9,9,10,10,11,11,12,12,13,13,14,14,15,15,16,16,17,17,18,18,19,19,20,20,21,21,22,22,23,23,24,24],"right_children":[2,4,6,8,10,12,-1,14,16,18,20,22,24,26,28,30,32,34,36,38,40,42,44,46,48,-1,-1,-1,-1,-1,-1,-1,-1,-1,-1,-1,-1,-1,-1,-1,-1,-1,-1,-1,-1,-1,-1,-1,-1],"split_conditions":[8E0,1.4E1,5.2E1,3E0,2.9E1,3.6E1,-2.1004023E1,1.054363E1,8.873811E0,7.517597E0,5.889812E0,1.019187E1,8.230665E0,5.848375E0,1.148163E1,6.911184E0,1.15555E1,5.177675E0,1.007399E1,4.24912E0,7.736657E0,7.325278E0,1.200981E1,5.757468E0,1.067251E1,-3.2196907E1,-5.056104E0,2.122511E1,4.725474E1,-2.8718616E1,5.500879E0,2.9012129E1,5.6373444E1,-3.290927E1,-1.48280325E1,1.0355792E1,4.3930813E1,-3.4105145E1,-2.5121975E1,-1.1164428E1,1.828305E1,-2.1384968E1,7.9799256E0,3.28903E1,5.9153473E1,-3.2444435E1,-7.6387024E0,1.9786114E1,5.3032894E1],"split_indices":[3,2,2,3,2,2,0,0,0,0,0,0,0,0,0,0,0,0,0,0,0,0,0,0,0,0,0,0,0,0,0,0,0,0,0,0,0,0,0,0,0,0,0,0,0,0,0,0,0],"split_type":[0,0,0,0,0,0,0,0,0,0,0,0,0,0,0,0,0,0,0,0,0,0,0,0,0,0,0,0,0,0,0,0,0,0,0,0,0,0,0,0,0,0,0,0,0,0,0,0,0],"sum_hessian":[3.2369E4,1.8988E4,1.3381E4,7.966E3,1.1022E4,1.2721E4,6.6E2,4.955E3,3.011E3,9.579E3,1.443E3,3.088E3,9.633E3,3.463E3,1.492E3,1.374E3,1.637E3,6.686E3,2.893E3,1.218E3,2.25E2,1.746E3,1.342E3,5.354E3,4.279E3,1.563E3,1.9E3,2.59E2,1.233E3,1.003E3,3.71E2,4.72E2,1.165E3,4.341E3,2.345E3,1.747E3,1.146E3,8.95E2,3.23E2,1.77E2,4.8E1,8.68E2,8.78E2,6.55E2,6.87E2,2.892E3,2.462E3,1.823E3,2.456E3],"tree_param":{"num_deleted":"0","num_feature":"4","num_nodes":"49","size_leaf_vector":"1"}},{"base_weights":[3.6202054E-2,-3.750604E2,7.780473E2,-3.4875198E2,-5.1756616E2,5.506515E2,8.2157544E2,-5.7838293E2,-3.2157425E1,-5.967311E2,-1.1815705E2,-5.8907404E2,7.0698486E2,5.0084003E2,1.061441E3,-6.7194806E2,-4.244118E2,-1.8528712E2,1.0499715E2,-6.324928E2,-4.5904623E2,-2.1408284E2,9.10645E1,-3.4050743E1,-3.5001685E2,3.99779E2,8.856008E2,3.3462845E2,6.454315E2,8.543225E2,1.0882513E3,-3.458802E1,-3.032031E1,-2.4190147E1,-1.8153967E1,-1.2539722E1,-5.245562E0,-1.1643592E1,6.6864915E0,-3.2104073E1,-2.901712E1,-2.530699E1,-2.1103977E1,-8.748581E0,-3.751987E1,5.441185E0,-4.9058193E1,-3.8781445E1,7.4448724E0,2.500793E1,-2.5636566E1,4.9734295E1,2.6471327E1,9.205506E0,1.831304E1,2.9013214E1,3.6021114E1,4.41578E1,-6.660402E1,4.564532E1,5.676758E1],"categories":[],"categories_nodes":[],"categories_segments":[],"categories_sizes":[],"default_left":[0,0,0,0,0,0,0,0,0,0,0,0,0,0,0,0,0,0,0,0,0,0,0,0,0,0,0,0,0,0,0,0,0,0,0,0,0,0,0,0,0,0,0,0,0,0,0,0,0,0,0,0,0,0,0,0,0,0,0,0,0],"id":15,"left_children":[1,3,5,7,9,11,13,15,17,19,21,23,25,27,29,31,33,35,37,39,41,43,45,-1,47,49,51,53,55,57,59,-1,-1,-1,-1,-1,-1,-1,-1,-1,-1,-1,-1,-1,-1,-1,-1,-1,-1,-1,-1,-1,-1,-1,-1,-1,-1,-1,-1,-1,-1],"loss_changes":[9.447682E9,8.171136E7,1.0378445E8,1.340713E9,1.0749792E8,3.0242678E8,6.793288E8,1.537042E8,1.6287234E8,1.3688448E7,1.133883E7,4.267352E6,8.14599E7,9.070003E7,2.7139584E7,8.211712E6,1.455136E7,1.9265424E7,3.974608E7,7.5296E5,8.11752E5,7.98638E6,3.4962365E6,0E0,1.264378E7,5.063504E7,3.6073216E7,8.321888E6,9.463296E6,3.799267E7,3.5897344E7,0E0,0E0,0E0,0E0,0E0,0E0,0E0,0E0,0E0,0E0,0E0,0E0,0E0,0E0,0E0,0E0,0E0,0E0,0E0,0E0,0E0,0E0,0E0,0E0,0E0,0E0,0E0,0E0,0E0,0E0],"parents":[2147483647,0,0,1,1,2,2,3,3,4,4,5,5,6,6,7,7,8,8,9,9,10,10,11,11,12,12,13,13,14,14,15,15,16,16,17,17,18,18,19,19,20,20,21,21,22,22,24,24,25,25,26,26,27,27,28,28,29,29,30,30],"right_children":[2,4,6,8,10,12,14,16,18,20,22,24,26,28,30,32,34,36,38,40,42,44,46,-1,48,50,52,54,56,58,60,-1,-1,-1,-1,-1,-1,-1,-1,-1,-1,-1,-1,-1,-1,-1,-1,-1,-1,-1,-1,-1,-1,-1,-1,-1,-1,-1,-1,-1,-1],"split_conditions":[9.198311E0,2.488198E2,4.075284E1,6.306017E0,5.92852E0,2E0,1.15555E1,4.540996E0,7.561939E0,4.302466E0,7.779937E0,1.141146E1,1.04845E1,1.025005E1,2E0,3.803356E0,5.530937E0,6.990165E0,5E0,3.65413E0,4.966529E0,5.2E1,5.2E1,-3.4050743E1,3E0,5E1,4.9E1,1E1,1.092312E1,4E0,1.235493E1,-3.458802E1,-3.032031E1,-2.4190147E1,-1.8153967E1,-1.2539722E1,-5.245562E0,-1.1643592E1,6.6864915E0,-3.2104073E1,-2.901712E1,-2.530699E1,-2.1103977E1,-8.748581E0,-3.751987E1,5.441185E0,-4.9058193E1,-3.8781445E1,7.4448724E0,2.500793E1,-2.5636566E1,4.9734295E1,2.6471327E1,9.205506E0,1.831304E1,2.9013214E1,3.6021114E1,4.41578E1,-6.660402E1,4.564532E1,5.676758E1],"split_indices":[0,1,1,0,0,3,0,0,0,0,0,0,0,0,3,0,0,0,2,0,0,2,2,0,2,2,2,2,0,2,0,0,0,0,0,0,0,0,0,0,0,0,0,0,0,0,0,0,0,0,0,0,0,0,0,0,0,0,0,0,0],"split_type":[0,0,0,0,0,0,0,0,0,0,0,0,0,0,0,0,0,0,0,0,0,0,0,0,0,0,0,0,0,0,0,0,0,0,0,0,0,0,0,0,0,0,0,0,0,0,0,0,0,0,0,0,0,0,0,0,0,0,0,0,0],"sum_hessian":[3.2372E4,2.1842E4,1.053E4,1.8441E4,3.401E3,1.694E3,8.836E3,1.0688E4,7.753E3,2.838E3,5.63E2,2.04E2,1.49E3,3.782E3,5.054E3,6.646E3,4.042E3,3.663E3,4.09E3,2.25E3,5.88E2,3.86E2,1.77E2,1.46E2,5.8E1,5.49E2,9.41E2,1.761E3,2.021E3,5.83E2,4.471E3,5.096E3,1.55E3,2.05E3,1.992E3,2.017E3,1.646E3,3.2E2,3.77E3,1.891E3,3.59E2,2.53E2,3.35E2,3.61E2,2.5E1,1.75E2,2E0,3.1E1,2.7E1,4.95E2,5.4E1,7.19E2,2.22E2,3.07E2,1.454E3,1.086E3,9.35E2,5.76E2,7E0,9.51E2,3.52E3],"tree_param":{"num_deleted":"0","num_feature":"4","num_nodes":"61","size_leaf_vector":"1"}},{"base_weights":[9.18132E-1,6.267346E1,-3.776507E2,-2.991678E2,8.111601E2,-5.4083307E2,2.5819855E2,-3.3515207E2,-2.4552275E2,6.106561E2,8.5041614E2,-5.241514E2,-5.569505E2,1.8755902E2,3.8927417E2,-5.3469574E2,1.7958326E1,-5.1300397E2,5.1630688E1,-4.2767096E2,7.31205E2,5.515554E2,1.0159882E3,-2.9736212E1,-3.5788614E2,-2.9849995E1,-3.6272922E2,9.5187004E1,7.7329846E2,1.4090402E2,8.496001E2,-2.8792837E1,-2.655318E1,-1.2546522E1,3.090695E0,-2.475948E1,-2.7819098E1,3.686205E0,-3.3681207E0,5.5690845E1,-3.7349636E1,4.1596622E1,1.6817333E1,2.5314499E1,3.166636E1,4.253416E1,5.179203E1,-1.7104162E1,-1.9142473E1,-1.7508621E1,-2.6032682E1,-1.2147192E1,6.857888E0,-2.5626799E1,5.005246E1,1.6031012E1,2.1756709E0,4.6287064E1,2.3597319E1],"categories":[],"categories_nodes":[],"categories_segments":[],"categories_sizes":[],"default_left":[0,0,0,0,0,0,0,0,0,0,0,0,0,0,0,0,0,0,0,0,0,0,0,0,0,0,0,0,0,0,0,0,0,0,0,0,0,0,0,0,0,0,0,0,0,0,0,0,0,0,0,0,0,0,0,0,0,0,0],"id":16,"left_children":[1,3,5,7,9,11,13,15,17,19,21,23,25,27,29,31,33,35,37,39,41,43,45,-1,47,-1,49,51,53,55,57,-1,-1,-1,-1,-1,-1,-1,-1,-1,-1,-1,-1,-1,-1,-1,-1,-1,-1,-1,-1,-1,-1,-1,-1,-1,-1,-1,-1],"loss_changes":[7.544524E8,7.5145134E9,4.697547E8,3.602355E7,7.065037E7,6.76544E5,8.49168E6,7.886085E8,5.9718195E8,1.860638E8,3.7348147E8,2.0755488E7,1.390912E7,3.2552272E7,3.6809276E7,7.63392E5,4.7679864E7,2.779968E6,9.364077E6,7.712774E7,5.261837E7,9.662144E6,1.5077888E7,0E0,8.0088E4,0E0,4.38372E5,7.441341E6,2.4526744E7,3.679112E6,2.812416E6,0E0,0E0,0E0,0E0,0E0,0E0,0E0,0E0,0E0,0E0,0E0,0E0,0E0,0E0,0E0,0E0,0E0,0E0,0E0,0E0,0E0,0E0,0E0,0E0,0E0,0E0,0E0,0E0],"parents":[2147483647,0,0,1,1,2,2,3,3,4,4,5,5,6,6,7,7,8,8,9,9,10,10,11,11,12,12,13,13,14,14,15,15,16,16,17,17,18,18,19,19,20,20,21,21,22,22,24,24,26,26,27,27,28,28,29,29,30,30],"right_children":[2,4,6,8,10,12,14,16,18,20,22,24,26,28,30,32,34,36,38,40,42,44,46,-1,48,-1,50,52,54,56,58,-1,-1,-1,-1,-1,-1,-1,-1,-1,-1,-1,-1,-1,-1,-1,-1,-1,-1,-1,-1,-1,-1,-1,-1,-1,-1,-1,-1],"split_conditions":[2.305448E2,9.709181E0,6.828897E0,8E0,4.235755E1,2.836418E2,2.795037E2,6.626315E0,6.665912E0,6E0,1.15555E1,4.642049E0,4.589913E0,1.148163E1,1.037517E1,1.86354E1,2E0,1.2E1,1.2E1,1.602607E1,1.2E1,9E0,2E0,-2.9736212E1,2.641368E2,-2.9849995E1,1.2E1,2E0,2E0,3.050685E2,1.2E1,-2.8792837E1,-2.655318E1,-1.2546522E1,3.090695E0,-2.475948E1,-2.7819098E1,3.686205E0,-3.3681207E0,5.5690845E1,-3.7349636E1,4.1596622E1,1.6817333E1,2.5314499E1,3.166636E1,4.253416E1,5.179203E1,-1.7104162E1,-1.9142473E1,-1.7508621E1,-2.6032682E1,-1.2147192E1,6.857888E0,-2.5626799E1,5.005246E1,1.6031012E1,2.1756709E0,4.6287064E1,2.3597319E1],"split_indices":[1,0,0,3,1,1,1,0,0,2,0,0,0,0,0,1,3,3,3,1,3,3,3,0,1,0,3,3,3,1,3,0,0,0,0,0,0,0,0,0,0,0,0,0,0,0,0,0,0,0,0,0,0,0,0,0,0,0,0],"split_type":[0,0,0,0,0,0,0,0,0,0,0,0,0,0,0,0,0,0,0,0,0,0,0,0,0,0,0,0,0,0,0,0,0,0,0,0,0,0,0,0,0,0,0,0,0,0,0,0,0,0,0,0,0,0,0,0,0,0,0],"sum_hessian":[3.2269E4,2.7744E4,4.525E3,1.8703E4,9.041E3,3.601E3,9.24E2,1.1191E4,7.512E3,1.483E3,7.558E3,1.786E3,1.815E3,6.02E2,3.22E2,7.15E3,4.041E3,3.953E3,3.559E3,1.54E2,1.329E3,2.696E3,4.862E3,1.252E3,5.34E2,1.503E3,3.12E2,5.21E2,8.1E1,2.1E2,1.12E2,5.67E2,6.583E3,5.66E2,3.475E3,2.811E3,1.142E3,3.002E3,5.57E2,2.6E1,1.28E2,1.058E3,2.71E2,1.74E3,9.56E2,5.26E2,4.336E3,3.36E2,1.98E2,2.92E2,2E1,5.7E1,4.64E2,1.2E1,6.9E1,7.3E1,1.37E2,9.2E1,2E1],"tree_param":{"num_deleted":"0","num_feature":"4","num_nodes":"59","size_leaf_vector":"1"}},{"base_weights":[1.2862246E0,-3.7457608E2,6.334818E2,-3.545116E2,-4.7785455E2,4.45014E2,6.858124E2,-5.594159E2,-1.1843147E2,-2.7034164E1,-1.2313641E2,2.2400691E2,7.7255286E2,3.6809402E2,9.439146E2,-5.5346204E2,-2.8329605E1,-1.9167224E2,-1.0866236E2,3.8385084E0,-1.6661256E2,-6.425435E2,3.6049753E2,-3.12832E2,8.6769214E2,3.31237E2,4.342324E2,7.6567584E2,9.6649634E2,-2.8642368E1,-2.725232E1,-8.019118E0,-3.1331959E1,-5.2751036E0,-2.051388E1,4.638816E0,-2.0337512E0,-6.617206E0,-3.521096E1,-4.6237125E1,-3.0984556E1,2.174595E1,-3.05349E1,-1.487445E1,-4.0424725E1,4.8293602E1,2.5642231E1,2.4872084E1,1.4386302E1,1.3778142E1,2.2069685E1,4.0527973E1,-6.461343E1,4.7495064E1,5.046874E1],"categories":[],"categories_nodes":[],"categories_segments":[],"categories_sizes":[],"default_left":[0,0,0,0,0,0,0,0,0,0,0,0,0,0,0,0,0,0,0,0,0,0,0,0,0,0,0,0,0,0,0,0,0,0,0,0,0,0,0,0,0,0,0,0,0,0,0,0,0,0,0,0,0,0,0],"id":17,"left_children":[1,3,5,7,9,11,13,15,17,-1,19,21,23,25,27,29,-1,31,33,35,37,39,41,43,45,47,49,51,53,-1,-1,-1,-1,-1,-1,-1,-1,-1,-1,-1,-1,-1,-1,-1,-1,-1,-1,-1,-1,-1,-1,-1,-1,-1,-1],"loss_changes":[7.6952745E9,4.191744E7,1.1878554E8,8.2277286E8,7.350112E7,1.8999133E8,7.74507E8,7.552E4,5.635176E6,0E0,2.74979E6,1.8592496E8,1.0952346E8,1.0184576E7,2.0241408E7,5.06624E5,0E0,1.2543248E7,6.607128E6,5.105175E5,6.741713E6,8.07008E5,9.834658E7,4.13508E5,3.3402944E7,1.9563328E7,1.597568E6,5.5636864E7,2.331136E6,0E0,0E0,0E0,0E0,0E0,0E0,0E0,0E0,0E0,0E0,0E0,0E0,0E0,0E0,0E0,0E0,0E0,0E0,0E0,0E0,0E0,0E0,0E0,0E0,0E0,0E0],"parents":[2147483647,0,0,1,1,2,2,3,3,4,4,5,5,6,6,7,7,8,8,10,10,11,11,12,12,13,13,14,14,15,15,17,17,18,18,19,19,20,20,21,21,22,22,23,23,24,24,25,25,26,26,27,27,28,28],"right_children":[2,4,6,8,10,12,14,16,18,-1,20,22,24,26,28,30,-1,32,34,36,38,40,42,44,46,48,50,52,54,-1,-1,-1,-1,-1,-1,-1,-1,-1,-1,-1,-1,-1,-1,-1,-1,-1,-1,-1,-1,-1,-1,-1,-1,-1,-1],"split_conditions":[8.564417E0,2.488198E2,4.767163E1,5.716208E0,5.889812E0,1.092312E1,1.133831E1,7E0,2.946157E1,-2.7034164E1,5E0,2E0,2E0,9E0,2E0,1.1E1,-2.8329605E1,5.1E1,5.2E1,4E0,5.2E1,3E0,5E1,5E0,4.9E1,8E0,3.7E1,4E0,3.9E1,-2.8642368E1,-2.725232E1,-8.019118E0,-3.1331959E1,-5.2751036E0,-2.051388E1,4.638816E0,-2.0337512E0,-6.617206E0,-3.521096E1,-4.6237125E1,-3.0984556E1,2.174595E1,-3.05349E1,-1.487445E1,-4.0424725E1,4.8293602E1,2.5642231E1,2.4872084E1,1.4386302E1,1.3778142E1,2.2069685E1,4.0527973E1,-6.461343E1,4.7495064E1,5.046874E1],"split_indices":[0,1,1,0,0,0,0,3,1,0,3,3,3,3,3,2,0,2,2,2,2,2,2,2,2,2,2,2,2,0,0,0,0,0,0,0,0,0,0,0,0,0,0,0,0,0,0,0,0,0,0,0,0,0,0],"split_type":[0,0,0,0,0,0,0,0,0,0,0,0,0,0,0,0,0,0,0,0,0,0,0,0,0,0,0,0,0,0,0,0,0,0,0,0,0,0,0,0,0,0,0,0,0,0,0,0,0,0,0,0,0,0,0],"sum_hessian":[3.2383E4,2.0309E4,1.2074E4,1.7009E4,3.3E3,2.626E3,9.448E3,9.105E3,7.904E3,2.803E3,4.97E2,1.569E3,1.057E3,4.236E3,5.212E3,5.019E3,4.086E3,9.28E2,6.976E3,1.27E2,3.7E2,2.13E2,1.356E3,8.5E1,9.72E2,2.724E3,1.512E3,5.9E2,4.622E3,1.499E3,3.52E3,8.67E2,6.1E1,6.905E3,7.1E1,4.2E1,8.5E1,3.49E2,2.1E1,1.3E1,2E2,1.26E3,9.6E1,8.4E1,1E0,7.6E2,2.12E2,5.63E2,2.161E3,6.7E1,1.445E3,5.78E2,1.2E1,3.349E3,1.273E3],"tree_param":{"num_deleted":"0","num_feature":"4","num_nodes":"55","size_leaf_vector":"1"}},{"base_weights":[9.3945634E-1,5.6802593E1,-3.398357E2,-2.6670715E2,7.451179E2,-4.853095E2,2.4773344E2,-3.0057074E2,-2.1640782E2,5.675449E2,7.7989734E2,-4.6748843E2,-5.008583E2,1.8447455E2,3.641226E2,-4.7688214E2,3.332541E1,-4.2820728E2,1.0535251E2,-3.7838242E2,7.0244495E2,5.211026E2,9.2700726E2,-2.6791666E1,-3.0026315E2,-2.7049637E1,-3.2977536E2,6.532627E1,5.147686E2,1.6113313E2,8.1816907E2,-2.3624807E1,-2.5900543E1,-1.2206417E1,3.9167373E0,-2.066144E1,-2.7092642E1,6.2557645E0,-2.3120352E1,4.555275E1,-3.0859543E1,3.7012035E1,-3.3103695E1,2.3860348E1,3.0334183E1,3.988222E1,4.7134315E1,-1.0692427E1,-1.5255974E1,-1.5892296E1,-2.2975016E1,4.4184465E0,-3.438494E1,-4.0568027E1,3.5787678E1,1.061243E1,-1.4406626E1,4.3710476E1,3.921878E0],"categories":[],"categories_nodes":[],"categories_segments":[],"categories_sizes":[],"default_left":[0,0,0,0,0,0,0,0,0,0,0,0,0,0,0,0,0,0,0,0,0,0,0,0,0,0,0,0,0,0,0,0,0,0,0,0,0,0,0,0,0,0,0,0,0,0,0,0,0,0,0,0,0,0,0,0,0,0,0],"id":18,"left_children":[1,3,5,7,9,11,13,15,17,19,21,23,25,27,29,31,33,35,37,39,41,43,45,-1,47,-1,49,51,53,55,57,-1,-1,-1,-1,-1,-1,-1,-1,-1,-1,-1,-1,-1,-1,-1,-1,-1,-1,-1,-1,-1,-1,-1,-1,-1,-1,-1,-1],"loss_changes":[6.166202E8,6.197069E9,3.9006138E8,3.2182144E7,5.451059E7,7.792E5,6.603392E6,6.659498E8,5.194061E8,1.8669763E8,2.8269107E8,1.9485536E7,1.3135392E7,2.3145864E7,2.9177164E7,1.090688E6,4.8847244E7,7.599616E6,3.4011104E7,5.6913204E7,6.645197E7,9.845888E6,8.864E6,0E0,1.44996E5,0E0,4.28092E5,7.5914075E6,4.215971E7,5.136292E6,3.994004E6,0E0,0E0,0E0,0E0,0E0,0E0,0E0,0E0,0E0,0E0,0E0,0E0,0E0,0E0,0E0,0E0,0E0,0E0,0E0,0E0,0E0,0E0,0E0,0E0,0E0,0E0,0E0,0E0],"parents":[2147483647,0,0,1,1,2,2,3,3,4,4,5,5,6,6,7,7,8,8,9,9,10,10,11,11,12,12,13,13,14,14,15,15,16,16,17,17,18,18,19,19,20,20,21,21,22,22,24,24,26,26,27,27,28,28,29,29,30,30],"right_children":[2,4,6,8,10,12,14,16,18,20,22,24,26,28,30,32,34,36,38,40,42,44,46,-1,48,-1,50,52,54,56,58,-1,-1,-1,-1,-1,-1,-1,-1,-1,-1,-1,-1,-1,-1,-1,-1,-1,-1,-1,-1,-1,-1,-1,-1,-1,-1,-1,-1],"split_conditions":[2.305448E2,9.770372E0,6.911184E0,8E0,4.235755E1,2.795037E2,2.795037E2,6.789106E0,7.116954E0,3E0,1.163558E1,4.750535E0,4.540996E0,1.013219E1,1.061554E1,2.9E1,5E0,5.1E1,5.2E1,1.742617E1,5.2E1,3.7E1,4E0,-2.6791666E1,2E0,-2.7049637E1,4.9E1,5.2E1,6E0,5.1E1,5.1E1,-2.3624807E1,-2.5900543E1,-1.2206417E1,3.9167373E0,-2.066144E1,-2.7092642E1,6.2557645E0,-2.3120352E1,4.555275E1,-3.0859543E1,3.7012035E1,-3.3103695E1,2.3860348E1,3.0334183E1,3.988222E1,4.7134315E1,-1.0692427E1,-1.5255974E1,-1.5892296E1,-2.2975016E1,4.4184465E0,-3.438494E1,-4.0568027E1,3.5787678E1,1.061243E1,-1.4406626E1,4.3710476E1,3.921878E0],"split_indices":[1,0,0,3,1,1,1,0,0,3,0,0,0,0,0,2,2,2,2,1,2,2,2,0,2,0,2,2,2,2,2,0,0,0,0,0,0,0,0,0,0,0,0,0,0,0,0,0,0,0,0,0,0,0,0,0,0,0,0],"split_type":[0,0,0,0,0,0,0,0,0,0,0,0,0,0,0,0,0,0,0,0,0,0,0,0,0,0,0,0,0,0,0,0,0,0,0,0,0,0,0,0,0,0,0,0,0,0,0,0,0,0,0,0,0,0,0,0,0,0,0],"sum_hessian":[3.2389E4,2.7828E4,4.561E3,1.8931E4,8.897E3,3.656E3,9.05E2,1.1311E4,7.62E3,1.46E3,7.437E3,1.718E3,1.938E3,5.88E2,3.17E2,7.402E3,3.909E3,4.595E3,3.025E3,1.82E2,1.278E3,2.697E3,4.74E3,1.218E3,5E2,1.568E3,3.7E2,4.33E2,1.55E2,2.2E2,9.7E1,6.7E3,7.02E2,5.45E2,3.364E3,4.064E3,5.31E2,2.924E3,1.01E2,2.8E1,1.54E2,1.244E3,3.4E1,1.787E3,9.1E2,5.18E2,4.222E3,2.9E1,4.71E2,3.42E2,2.8E1,4.21E2,1.2E1,2E1,1.35E2,1.98E2,2.2E1,9E1,7E0],"tree_param":{"num_deleted":"0","num_feature":"4","num_nodes":"59","size_leaf_vector":"1"}},{"base_weights":[-2.1311696E0,-3.6331412E2,5.3518384E2,-3.2787097E2,-4.0063483E2,3.489852E2,5.847653E2,-4.1877878E2,-3.1372897E2,-3.835643E2,-4.6204468E2,-5.213248E2,4.6939462E2,5.193096E2,6.502219E2,-2.7660482E1,-2.3280045E2,-5.247148E2,-1.5037236E2,-5.180172E2,-1.3916335E2,-5.0445346E2,-2.321234E2,-6.5507776E2,-1.6382977E2,2.1651175E2,7.077922E2,2.5342896E2,8.2695917E2,3.0061053E2,8.1792847E2,-1.0385201E1,-3.1402456E1,-2.5625416E1,-2.7313833E1,-2.3900629E1,-6.964772E0,-2.6280567E1,-2.4821836E1,-5.580955E0,-9.323118E0,-2.6595282E1,-2.4939245E1,-1.0636854E1,-1.7603003E1,6.0945415E0,-3.6472946E1,4.522424E1,-2.0031961E1,1.4689723E1,-1.742375E1,3.9247673E1,1.9115158E1,1.5124671E1,3.9202754E0,5.7060688E1,4.1007103E1,1.6167412E1,8.994693E0,3.250958E1,4.2634415E1],"categories":[],"categories_nodes":[],"categories_segments":[],"categories_sizes":[],"default_left":[0,0,0,0,0,0,0,0,0,0,0,0,0,0,0,0,0,0,0,0,0,0,0,0,0,0,0,0,0,0,0,0,0,0,0,0,0,0,0,0,0,0,0,0,0,0,0,0,0,0,0,0,0,0,0,0,0,0,0,0,0],"id":19,"left_children":[1,3,5,7,9,11,13,15,17,19,21,23,25,27,29,-1,31,33,35,37,39,41,43,45,47,49,51,53,55,57,59,-1,-1,-1,-1,-1,-1,-1,-1,-1,-1,-1,-1,-1,-1,-1,-1,-1,-1,-1,-1,-1,-1,-1,-1,-1,-1,-1,-1,-1,-1],"loss_changes":[6.27561E9,2.5448192E7,1.1980288E8,1.2627072E7,9.692416E6,2.869598E8,4.363827E7,3.3197856E7,2.9605235E8,2.4220774E8,1.9803552E7,1.5815408E7,1.4477584E8,4.1998707E8,3.004196E8,0E0,5.434292E6,7.06816E5,1.751348E7,5.18528E5,3.38996E6,3.008E3,6.69146E5,1.4074536E7,2.3637174E7,5.1101596E7,3.0767296E7,2.3651808E7,4.164864E6,4.509216E6,1.9648512E7,0E0,0E0,0E0,0E0,0E0,0E0,0E0,0E0,0E0,0E0,0E0,0E0,0E0,0E0,0E0,0E0,0E0,0E0,0E0,0E0,0E0,0E0,0E0,0E0,0E0,0E0,0E0,0E0,0E0,0E0],"parents":[2147483647,0,0,1,1,2,2,3,3,4,4,5,5,6,6,7,7,8,8,9,9,10,10,11,11,12,12,13,13,14,14,16,16,17,17,18,18,19,19,20,20,21,21,22,22,23,23,24,24,25,25,26,26,27,27,28,28,29,29,30,30],"right_children":[2,4,6,8,10,12,14,16,18,20,22,24,26,28,30,-1,32,34,36,38,40,42,44,46,48,50,52,54,56,58,60,-1,-1,-1,-1,-1,-1,-1,-1,-1,-1,-1,-1,-1,-1,-1,-1,-1,-1,-1,-1,-1,-1,-1,-1,-1,-1,-1,-1,-1,-1],"split_conditions":[8.186766E0,8.074483E1,4.546019E1,2.235962E1,2.795037E2,2E0,1.660137E2,5.028961E0,5.530937E0,5.29388E0,5.127349E0,1.099346E1,1.019187E1,1.086121E1,1.092312E1,-2.7660482E1,1.2E1,8E0,2E0,2.326796E2,2.154433E2,4E0,1.2E1,1.602607E1,1.309428E1,1.2E1,1.2E1,7.040395E1,2E0,2.488198E2,2E0,-1.0385201E1,-3.1402456E1,-2.5625416E1,-2.7313833E1,-2.3900629E1,-6.964772E0,-2.6280567E1,-2.4821836E1,-5.580955E0,-9.323118E0,-2.6595282E1,-2.4939245E1,-1.0636854E1,-1.7603003E1,6.0945415E0,-3.6472946E1,4.522424E1,-2.0031961E1,1.4689723E1,-1.742375E1,3.9247673E1,1.9115158E1,1.5124671E1,3.9202754E0,5.7060688E1,4.1007103E1,1.6167412E1,8.994693E0,3.250958E1,4.2634415E1],"split_indices":[0,1,1,1,1,3,1,0,0,0,0,0,0,0,0,0,3,3,3,1,1,3,3,1,1,3,3,1,3,1,3,0,0,0,0,0,0,0,0,0,0,0,0,0,0,0,0,0,0,0,0,0,0,0,0,0,0,0,0,0,0],"split_type":[0,0,0,0,0,0,0,0,0,0,0,0,0,0,0,0,0,0,0,0,0,0,0,0,0,0,0,0,0,0,0,0,0,0,0,0,0,0,0,0,0,0,0,0,0,0,0,0,0,0,0,0,0,0,0,0,0,0,0,0,0],"sum_hessian":[3.2335E4,1.9337E4,1.2998E4,9.923E3,9.414E3,2.735E3,1.0263E4,1.332E3,8.591E3,7.372E3,2.042E3,3.32E2,2.403E3,5.136E3,5.127E3,7.72E2,5.6E2,3.748E3,4.843E3,4.755E3,2.617E3,1.723E3,3.19E2,2.41E2,9.1E1,1.167E3,1.236E3,2.756E3,2.38E3,1.663E3,3.464E3,5.28E2,3.2E1,2.409E3,1.339E3,1.57E2,4.686E3,3.5E3,1.255E3,1.656E3,9.61E2,2.79E2,1.444E3,2.77E2,4.2E1,2.1E1,2.2E2,1.6E1,7.5E1,1.027E3,1.4E2,9.98E2,2.38E2,2.152E3,6.04E2,4.7E1,2.333E3,1.398E3,2.65E2,5.98E2,2.866E3],"tree_param":{"num_deleted":"0","num_feature":"4","num_nodes":"61","size_leaf_vector":"1"}},{"base_weights":[-1.253646E0,-2.9470502E2,6.01522E2,-4.5233444E2,-2.4969099E1,3.398715E2,7.879787E2,-5.232937E2,-3.2176688E2,-1.4451257E2,8.7459915E1,2.2183817E2,4.6407736E2,6.5370874E2,8.37333E2,-5.384564E2,-4.6737402E2,-3.7595587E2,-2.858841E2,-1.921634E2,-8.772824E1,-1.6830266E2,1.08476944E2,-5.9490692E1,2.8443863E2,2.1228061E2,5.0668323E2,6.018867E2,7.141146E2,5.060724E2,8.808367E2,-2.6472113E1,-2.8142958E1,-2.2865265E1,-2.4468473E1,-1.7738329E1,-1.9418173E1,-1.4047805E1,-2.1295002E1,-9.300295E0,-1.832318E1,-4.0716777E0,-2.3184341E1,6.628776E0,-3.2465572E1,5.885158E0,-1.9353542E1,4.1215515E0,-2.8774054E1,1.5124514E1,-1.7242716E1,1.9876938E1,-2.4212519E1,2.5969471E1,-1.9818747E1,3.0372532E1,-8.834588E-1,3.5828754E1,-2.9018219E1,4.889597E1,1.9512781E1,4.2104748E1,4.523398E1],"categories":[],"categories_nodes":[],"categories_segments":[],"categories_sizes":[],"default_left":[0,0,0,0,0,0,0,0,0,0,0,0,0,0,0,0,0,0,0,0,0,0,0,0,0,0,0,0,0,0,0,0,0,0,0,0,0,0,0,0,0,0,0,0,0,0,0,0,0,0,0,0,0,0,0,0,0,0,0,0,0,0,0],"id":20,"left_children":[1,3,5,7,9,11,13,15,17,19,21,23,25,27,29,31,33,35,37,39,41,43,45,47,49,51,53,55,57,59,61,-1,-1,-1,-1,-1,-1,-1,-1,-1,-1,-1,-1,-1,-1,-1,-1,-1,-1,-1,-1,-1,-1,-1,-1,-1,-1,-1,-1,-1,-1,-1,-1],"loss_changes":[5.7128663E9,9.235716E8,5.1564954E8,1.268544E8,1.0770861E8,6.4432256E7,4.0366336E7,7.278592E6,9.284192E6,1.0492544E7,2.2218528E7,3.980089E7,2.2893312E7,4.779072E6,6.456243E7,1.237376E6,1.9744E5,3.67232E5,1.888256E6,2.19748E6,4.160487E6,4.5529744E7,1.7497008E7,3.02183E7,2.1097184E7,4.0452376E7,2.1238528E7,3.120096E6,2.846016E6,2.8363088E7,2.919936E6,0E0,0E0,0E0,0E0,0E0,0E0,0E0,0E0,0E0,0E0,0E0,0E0,0E0,0E0,0E0,0E0,0E0,0E0,0E0,0E0,0E0,0E0,0E0,0E0,0E0,0E0,0E0,0E0,0E0,0E0,0E0,0E0],"parents":[2147483647,0,0,1,1,2,2,3,3,4,4,5,5,6,6,7,7,8,8,9,9,10,10,11,11,12,12,13,13,14,14,15,15,16,16,17,17,18,18,19,19,20,20,21,21,22,22,23,23,24,24,25,25,26,26,27,27,28,28,29,29,30,30],"right_children":[2,4,6,8,10,12,14,16,18,20,22,24,26,28,30,32,34,36,38,40,42,44,46,48,50,52,54,56,58,60,62,-1,-1,-1,-1,-1,-1,-1,-1,-1,-1,-1,-1,-1,-1,-1,-1,-1,-1,-1,-1,-1,-1,-1,-1,-1,-1,-1,-1,-1,-1,-1,-1],"split_conditions":[9.142945E0,6.306017E0,1.127258E1,4.494076E0,7.561939E0,1.019187E1,1.226673E1,3.758596E0,5.29388E0,6.990165E0,2E0,3E0,3E0,1.178779E1,2E0,3.1E1,3.1E1,2.1E1,5.1E1,5.1E1,5.2E1,4E0,5.2E1,8E0,5.2E1,8E0,5.2E1,5.2E1,5.2E1,2E0,1.5E1,-2.6472113E1,-2.8142958E1,-2.2865265E1,-2.4468473E1,-1.7738329E1,-1.9418173E1,-1.4047805E1,-2.1295002E1,-9.300295E0,-1.832318E1,-4.0716777E0,-2.3184341E1,6.628776E0,-3.2465572E1,5.885158E0,-1.9353542E1,4.1215515E0,-2.8774054E1,1.5124514E1,-1.7242716E1,1.9876938E1,-2.4212519E1,2.5969471E1,-1.9818747E1,3.0372532E1,-8.834588E-1,3.5828754E1,-2.9018219E1,4.889597E1,1.9512781E1,4.2104748E1,4.523398E1],"split_indices":[0,0,0,0,0,0,0,0,0,0,3,3,3,0,3,2,2,2,2,2,2,2,2,2,2,2,2,2,2,2,2,0,0,0,0,0,0,0,0,0,0,0,0,0,0,0,0,0,0,0,0,0,0,0,0,0,0,0,0,0,0,0,0],"split_type":[0,0,0,0,0,0,0,0,0,0,0,0,0,0,0,0,0,0,0,0,0,0,0,0,0,0,0,0,0,0,0,0,0,0,0,0,0,0,0,0,0,0,0,0,0,0,0,0,0,0,0,0,0,0,0,0,0,0,0,0,0,0,0],"sum_hessian":[3.2295E4,2.1721E4,1.0574E4,1.3709E4,8.012E3,4.401E3,6.173E3,8.88E3,4.829E3,3.883E3,4.129E3,2.258E3,2.143E3,1.663E3,4.51E3,6.979E3,1.901E3,1.92E3,2.909E3,2.11E3,1.773E3,3.13E2,3.816E3,4.11E2,1.847E3,3.11E2,1.832E3,9.01E2,7.62E2,5.25E2,3.985E3,5.113E3,1.866E3,1.319E3,5.82E2,7.2E2,1.2E3,2.813E3,9.6E1,2.04E3,7E1,1.745E3,2.8E1,1.93E2,1.2E2,3.747E3,6.9E1,3.23E2,8.8E1,1.796E3,5.1E1,2.46E2,6.5E1,1.807E3,2.5E1,8.93E2,8E0,7.61E2,1E0,1.02E2,4.23E2,1.532E3,2.453E3],"tree_param":{"num_deleted":"0","num_feature":"4","num_nodes":"63","size_leaf_vector":"1"}},{"base_weights":[1.1921488E0,-3.5238855E2,4.5404416E2,-3.2695447E2,-3.7802396E2,3.835502E2,5.663412E2,-4.865314E2,-1.8007181E2,-4.7419696E2,-1.8847609E2,1.5854924E2,6.8592267E2,2.4043658E2,7.482855E2,-5.2873065E2,-3.8890454E2,-2.3183319E2,-5.5423893E1,-4.9552866E2,-3.946794E2,-2.481236E2,-5.3504536E1,-5.93345E2,2.0886743E2,5.412334E2,8.0241376E2,1.8420721E2,4.0612775E2,5.509868E2,7.793584E2,-2.70852E1,-2.4422335E1,-2.1177715E1,-1.7959349E1,-1.1074306E1,-2.9935501E1,-1.5769637E1,-2.2128747E0,-2.4487646E1,-2.5972534E1,-2.131876E1,-1.838012E1,-1.4172843E1,-1.0082296E1,-1.9721197E0,-2.4427786E1,-1.0643748E1,-3.3001064E1,1.1383425E1,-2.239418E1,2.746433E1,-2.5816996E1,5.7520843E0,4.192102E1,1.8269325E1,7.9110336E0,1.8145462E1,2.3628134E1,3.5124638E1,2.5773954E1,3.259992E1,4.024427E1],"categories":[],"categories_nodes":[],"categories_segments":[],"categories_sizes":[],"default_left":[0,0,0,0,0,0,0,0,0,0,0,0,0,0,0,0,0,0,0,0,0,0,0,0,0,0,0,0,0,0,0,0,0,0,0,0,0,0,0,0,0,0,0,0,0,0,0,0,0,0,0,0,0,0,0,0,0,0,0,0,0,0,0],"id":21,"left_children":[1,3,5,7,9,11,13,15,17,19,21,23,25,27,29,31,33,35,37,39,41,43,45,47,49,51,53,55,57,59,61,-1,-1,-1,-1,-1,-1,-1,-1,-1,-1,-1,-1,-1,-1,-1,-1,-1,-1,-1,-1,-1,-1,-1,-1,-1,-1,-1,-1,-1,-1,-1,-1],"loss_changes":[5.1496105E9,1.165184E7,1.1140992E8,2.125753E8,1.6375629E8,5.894748E8,3.221559E8,1.7707072E7,3.047904E7,9.917568E6,2.4356232E7,1.8815872E8,6.1878656E7,1.8083448E7,2.095424E7,1.320576E6,1.20296E6,1.254256E7,4.0152905E6,3.94496E5,9.29776E5,3.38984E6,5.664121E6,7.774416E6,5.762949E7,1.435344E7,5.054195E7,6.802072E6,1.244016E6,2.209328E6,9.264384E6,0E0,0E0,0E0,0E0,0E0,0E0,0E0,0E0,0E0,0E0,0E0,0E0,0E0,0E0,0E0,0E0,0E0,0E0,0E0,0E0,0E0,0E0,0E0,0E0,0E0,0E0,0E0,0E0,0E0,0E0,0E0,0E0],"parents":[2147483647,0,0,1,1,2,2,3,3,4,4,5,5,6,6,7,7,8,8,9,9,10,10,11,11,12,12,13,13,14,14,15,15,16,16,17,17,18,18,19,19,20,20,21,21,22,22,23,23,24,24,25,25,26,26,27,27,28,28,29,29,30,30],"right_children":[2,4,6,8,10,12,14,16,18,20,22,24,26,28,30,32,34,36,38,40,42,44,46,48,50,52,54,56,58,60,62,-1,-1,-1,-1,-1,-1,-1,-1,-1,-1,-1,-1,-1,-1,-1,-1,-1,-1,-1,-1,-1,-1,-1,-1,-1,-1,-1,-1,-1,-1,-1,-1],"split_conditions":[7.779937E0,8.207011E1,1.613182E2,5.34083E0,4.914511E0,1.067251E1,1.092312E1,4.302466E0,7.116954E0,3.858574E0,6.828897E0,2E0,1.200981E1,1.000563E1,1.178779E1,3.65413E0,4.750535E0,5.1E1,5E0,3.8E1,4.302466E0,5.970478E0,5.2E1,3E0,5.1E1,5.2E1,6E0,4E0,2.1E1,4E0,4E0,-2.70852E1,-2.4422335E1,-2.1177715E1,-1.7959349E1,-1.1074306E1,-2.9935501E1,-1.5769637E1,-2.2128747E0,-2.4487646E1,-2.5972534E1,-2.131876E1,-1.838012E1,-1.4172843E1,-1.0082296E1,-1.9721197E0,-2.4427786E1,-1.0643748E1,-3.3001064E1,1.1383425E1,-2.239418E1,2.746433E1,-2.5816996E1,5.7520843E0,4.192102E1,1.8269325E1,7.9110336E0,1.8145462E1,2.3628134E1,3.5124638E1,2.5773954E1,3.259992E1,4.024427E1],"split_indices":[0,1,1,0,0,0,0,0,0,0,0,3,0,0,0,0,0,2,2,2,0,0,2,2,2,2,2,2,2,2,2,0,0,0,0,0,0,0,0,0,0,0,0,0,0,0,0,0,0,0,0,0,0,0,0,0,0,0,0,0,0,0,0],"split_type":[0,0,0,0,0,0,0,0,0,0,0,0,0,0,0,0,0,0,0,0,0,0,0,0,0,0,0,0,0,0,0,0,0,0,0,0,0,0,0,0,0,0,0,0,0,0,0,0,0,0,0,0,0,0,0,0,0,0,0,0,0,0,0],"sum_hessian":[3.2159E4,1.8059E4,1.41E4,9.072E3,8.987E3,8.665E3,5.435E3,4.347E3,4.725E3,5.961E3,3.026E3,4.969E3,3.696E3,1.948E3,3.487E3,3.032E3,1.315E3,3.338E3,1.387E3,4.696E3,1.265E3,2.098E3,9.28E2,3.11E2,4.658E3,1.651E3,2.045E3,1.456E3,4.92E2,4.77E2,3.01E3,2.284E3,7.48E2,6.01E2,7.14E2,3.248E3,9E1,5.6E1,1.331E3,3.8E3,8.96E2,5.76E2,6.89E2,1.189E3,9.09E2,9E2,2.8E1,4.7E1,2.64E2,4.529E3,1.29E2,1.639E3,1.2E1,1.02E2,1.943E3,1.81E2,1.275E3,3.02E2,1.9E2,8.7E1,3.9E2,5.07E2,2.503E3],"tree_param":{"num_deleted":"0","num_feature":"4","num_nodes":"63","size_leaf_vector":"1"}},{"base_weights":[1.6374366E0,-2.656544E2,5.3913763E2,-2.4737598E2,-3.6504953E2,3.8376523E2,5.712604E2,-4.1293182E2,-2.5965834E1,-4.159258E2,-8.765878E1,-4.705074E2,4.9946924E2,3.2969467E2,7.3527094E2,-4.1103635E2,-4.498016E2,-1.8876621E1,-2.4902016E2,-2.1681692E1,-4.1052682E2,-6.038934E1,-6.0345557E2,-5.447806E2,-4.4661264E2,5.455695E2,-5.1462976E2,1.8475206E2,3.5735364E2,5.970956E2,7.5295355E2,-2.062483E1,-1.8674013E1,-2.3895592E1,-1.85234E1,-7.595305E0,-4.2868862E-1,-2.569734E1,1.4795832E-1,-2.028508E1,-2.2064423E1,2.504768E0,-4.5131836E0,-3.2507397E1,1.4096362E1,-3.359701E1,3.54306E1,4.139476E1,-3.2445255E1,2.857396E0,2.7758276E1,2.4574581E1,-3.438125E1,2.0647877E1,-2.5616362E1,1.8035706E1,-8.212575E0,3.1519613E1,-6.2911713E1,3.6677296E1,3.9629223E1],"categories":[],"categories_nodes":[],"categories_segments":[],"categories_sizes":[],"default_left":[0,0,0,0,0,0,0,0,0,0,0,0,0,0,0,0,0,0,0,0,0,0,0,0,0,0,0,0,0,0,0,0,0,0,0,0,0,0,0,0,0,0,0,0,0,0,0,0,0,0,0,0,0,0,0,0,0,0,0,0,0],"id":22,"left_children":[1,3,5,7,9,11,13,15,17,19,21,23,25,27,29,31,33,35,37,-1,39,41,43,45,47,49,51,53,55,57,59,-1,-1,-1,-1,-1,-1,-1,-1,-1,-1,-1,-1,-1,-1,-1,-1,-1,-1,-1,-1,-1,-1,-1,-1,-1,-1,-1,-1,-1,-1],"loss_changes":[4.638079E9,3.9081344E7,5.3293824E7,6.676737E8,4.7198496E7,1.821057E8,3.516964E8,5.43616E5,1.2319794E7,9.232E4,7.277613E6,1.47136E5,7.606294E7,1.4342176E7,1.2475392E7,3.90016E5,9.3576E5,1.0353449E7,1.6022968E7,0E0,1.4544E5,1.6383465E6,1.258152E6,8.285812E6,4.4882836E7,7.237632E6,1.2695806E7,9.215825E7,5.347648E6,3.816787E7,3.022592E6,0E0,0E0,0E0,0E0,0E0,0E0,0E0,0E0,0E0,0E0,0E0,0E0,0E0,0E0,0E0,0E0,0E0,0E0,0E0,0E0,0E0,0E0,0E0,0E0,0E0,0E0,0E0,0E0,0E0,0E0],"parents":[2147483647,0,0,1,1,2,2,3,3,4,4,5,5,6,6,7,7,8,8,9,9,10,10,11,11,12,12,13,13,14,14,15,15,16,16,17,17,18,18,20,20,21,21,22,22,23,23,24,24,25,25,26,26,27,27,28,28,29,29,30,30],"right_children":[2,4,6,8,10,12,14,16,18,20,22,24,26,28,30,32,34,36,38,-1,40,42,44,46,48,50,52,54,56,58,60,-1,-1,-1,-1,-1,-1,-1,-1,-1,-1,-1,-1,-1,-1,-1,-1,-1,-1,-1,-1,-1,-1,-1,-1,-1,-1,-1,-1,-1,-1],"split_conditions":[9.084689E0,2.488198E2,4.180746E1,6.220505E0,5.970478E0,5E0,1.133831E1,5.1E1,5.1E1,1.6E1,5.2E1,3E0,5.2E1,3E0,2E0,4.9E1,1.780302E2,5E0,4.284802E1,-2.1681692E1,4.1E1,1.3E1,3.568729E2,4.075284E1,1.742617E1,9E0,1.86354E1,8E0,3.568729E2,4E0,3.7E1,-2.062483E1,-1.8674013E1,-2.3895592E1,-1.85234E1,-7.595305E0,-4.2868862E-1,-2.569734E1,1.4795832E-1,-2.028508E1,-2.2064423E1,2.504768E0,-4.5131836E0,-3.2507397E1,1.4096362E1,-3.359701E1,3.54306E1,4.139476E1,-3.2445255E1,2.857396E0,2.7758276E1,2.4574581E1,-3.438125E1,2.0647877E1,-2.5616362E1,1.8035706E1,-8.212575E0,3.1519613E1,-6.2911713E1,3.6677296E1,3.9629223E1],"split_indices":[0,1,1,0,0,2,0,2,2,2,2,2,2,3,3,2,1,2,1,0,2,2,1,1,1,2,1,2,1,2,2,0,0,0,0,0,0,0,0,0,0,0,0,0,0,0,0,0,0,0,0,0,0,0,0,0,0,0,0,0,0],"split_type":[0,0,0,0,0,0,0,0,0,0,0,0,0,0,0,0,0,0,0,0,0,0,0,0,0,0,0,0,0,0,0,0,0,0,0,0,0,0,0,0,0,0,0,0,0,0,0,0,0,0,0,0,0,0,0,0,0,0,0,0,0],"sum_hessian":[3.2281E4,2.156E4,1.0721E4,1.8214E4,3.346E3,1.839E3,8.882E3,1.0421E4,7.793E3,2.827E3,5.19E2,2.19E2,1.62E3,3.593E3,5.289E3,9.923E3,4.98E2,7.554E3,2.39E2,6.42E2,2.185E3,4.94E2,2.5E1,4.8E1,1.71E2,1.55E3,7E1,5.77E2,3.016E3,6.04E2,4.685E3,9.542E3,3.81E2,3.64E2,1.34E2,5.42E2,7.012E3,1.16E2,1.23E2,1.901E3,2.84E2,1.05E2,3.89E2,2.4E1,1E0,4.4E1,4E0,2.3E1,1.48E2,3E1,1.52E3,1E1,6E1,4.35E2,1.42E2,2.997E3,1.9E1,5.94E2,1E1,3.158E3,1.527E3],"tree_param":{"num_deleted":"0","num_feature":"4","num_nodes":"61","size_leaf_vector":"1"}},{"base_weights":[5.9507376E-1,-3.2235114E2,4.0890207E2,-4.3941495E2,-1.7751672E2,1.7649046E2,6.605238E2,-4.5082922E2,-4.105216E2,-1.7453825E2,-3.5787103E2,-1.1141284E2,2.0233235E2,5.186795E2,6.77199E2,-4.75035E2,-3.6118057E2,-2.1421173E1,-3.4472845E2,-2.2272899E2,-5.818451E1,-2.6068739E1,-1.2851651E1,-5.722469E2,3.3075635E2,1.3408456E2,3.5556787E2,-2.9289728E2,6.024863E2,5.2856836E2,7.5392426E2,-2.3281868E1,-2.480544E1,-1.6867182E1,-1.87106E1,-1.6931705E1,-2.0903208E1,-1.1001423E1,-1.8232548E1,7.628017E0,-3.1377265E0,-2.9514105E1,3.0855122E1,2.0602524E1,-3.1436872E1,7.4592853E0,-1.04024315E1,1.8268461E1,-1.6841333E1,-2.8921808E1,-1.5155661E0,4.1531345E1,2.3101772E1,-5.5968456E1,2.6651361E1,-6.118233E1,3.7881763E1],"categories":[],"categories_nodes":[],"categories_segments":[],"categories_sizes":[],"default_left":[0,0,0,0,0,0,0,0,0,0,0,0,0,0,0,0,0,0,0,0,0,0,0,0,0,0,0,0,0,0,0,0,0,0,0,0,0,0,0,0,0,0,0,0,0,0,0,0,0,0,0,0,0,0,0,0,0],"id":23,"left_children":[1,3,5,7,9,11,13,15,17,19,21,23,25,27,29,31,33,-1,35,37,39,-1,-1,41,43,45,47,49,51,53,55,-1,-1,-1,-1,-1,-1,-1,-1,-1,-1,-1,-1,-1,-1,-1,-1,-1,-1,-1,-1,-1,-1,-1,-1,-1,-1],"loss_changes":[4.2902362E9,3.07941E8,8.4017946E8,3.128192E6,4.300512E6,5.560653E7,1.5966976E7,1.543296E7,3.21616E6,4.4799584E7,2.025838E6,1.2570951E8,7.165222E7,4.982792E7,6.996224E7,8.89728E5,3.49952E5,0E0,1.33744E5,2.0856E6,2.265174E6,0E0,0E0,6.842232E6,2.4829448E7,2.454656E7,1.4456E7,5.155984E6,2.0828368E7,1.6056576E7,3.077376E7,0E0,0E0,0E0,0E0,0E0,0E0,0E0,0E0,0E0,0E0,0E0,0E0,0E0,0E0,0E0,0E0,0E0,0E0,0E0,0E0,0E0,0E0,0E0,0E0,0E0,0E0],"parents":[2147483647,0,0,1,1,2,2,3,3,4,4,5,5,6,6,7,7,8,8,9,9,10,10,11,11,12,12,13,13,14,14,15,15,16,16,18,18,19,19,20,20,23,23,24,24,25,25,26,26,27,27,28,28,29,29,30,30],"right_children":[2,4,6,8,10,12,14,16,18,20,22,24,26,28,30,32,34,-1,36,38,40,-1,-1,42,44,46,48,50,52,54,56,-1,-1,-1,-1,-1,-1,-1,-1,-1,-1,-1,-1,-1,-1,-1,-1,-1,-1,-1,-1,-1,-1,-1,-1,-1,-1],"split_conditions":[7.736657E0,4.966529E0,1.092312E1,2.326796E2,5.2E1,6E0,5E0,4.204541E0,3.803356E0,6.951591E0,4.66399E1,5.755198E1,9.822724E0,4.075284E1,1.226673E1,8E0,2.1E1,-2.1421173E1,4.9E1,5.1E1,2E0,-2.6068739E1,-1.2851651E1,5E0,4E0,5.1E1,5.2E1,3E0,3E0,2E0,2E0,-2.3281868E1,-2.480544E1,-1.6867182E1,-1.87106E1,-1.6931705E1,-2.0903208E1,-1.1001423E1,-1.8232548E1,7.628017E0,-3.1377265E0,-2.9514105E1,3.0855122E1,2.0602524E1,-3.1436872E1,7.4592853E0,-1.04024315E1,1.8268461E1,-1.6841333E1,-2.8921808E1,-1.5155661E0,4.1531345E1,2.3101772E1,-5.5968456E1,2.6651361E1,-6.118233E1,3.7881763E1],"split_indices":[0,0,0,1,2,2,2,0,0,0,1,1,0,1,0,3,2,0,2,2,2,0,0,2,2,2,2,2,2,3,3,0,0,0,0,0,0,0,0,0,0,0,0,0,0,0,0,0,0,0,0,0,0,0,0,0,0],"split_type":[0,0,0,0,0,0,0,0,0,0,0,0,0,0,0,0,0,0,0,0,0,0,0,0,0,0,0,0,0,0,0,0,0,0,0,0,0,0,0,0,0,0,0,0,0,0,0,0,0,0,0,0,0,0,0,0,0],"sum_hessian":[3.2534E4,1.8166E4,1.4368E4,1.0045E4,8.121E3,7.47E3,6.898E3,7.19E3,2.855E3,7.991E3,1.3E2,6.15E2,6.855E3,7.29E2,6.169E3,5.658E3,1.532E3,2.24E3,6.15E2,5.65E3,2.341E3,4.8E1,8.2E1,3.01E2,3.14E2,4.744E3,2.111E3,6.8E1,6.61E2,2.103E3,4.066E3,3.929E3,1.729E3,5.51E2,9.81E2,5.73E2,4.2E1,5.547E3,1.03E2,4.9E1,2.292E3,2.97E2,4E0,2.9E2,2.4E1,4.544E3,2E2,2.082E3,2.9E1,3.2E1,3.6E1,2.5E2,4.11E2,5E0,2.098E3,7E0,4.059E3],"tree_param":{"num_deleted":"0","num_feature":"4","num_nodes":"57","size_leaf_vector":"1"}},{"base_weights":[1.7638042E0,-3.0728552E2,3.8669986E2,-4.176004E2,-1.6976147E2,1.6783818E2,6.295552E2,-4.3909528E2,-3.4854745E2,-2.1747908E2,-7.440594E1,1.0333005E2,3.162012E2,4.9016376E2,6.8223535E2,-4.5453027E2,-2.0249208E1,-3.7136298E2,-3.2692166E2,-2.1195464E2,-3.5482178E2,-6.868149E1,-3.9132123E2,-1.3991052E2,1.26214905E2,9.877956E1,3.610067E2,4.9740076E2,-4.3942133E2,4.8086548E2,7.078481E2,-2.203528E1,-2.3384155E1,-1.7678137E1,-1.996034E1,-1.3337563E1,-1.687335E1,-1.0793927E1,-9.343933E0,-2.47986E1,-9.382484E0,-2.2234562E1,-3.3533685E0,-1.558725E1,-2.7015043E1,-2.7544447E1,1.4226778E1,8.072614E0,4.683997E0,-2.0685982E1,1.2728903E1,1.8618917E1,1.0356353E1,2.5279978E1,1.4344457E1,-3.9003872E1,3.462012E1,-1.1876812E1,2.8856613E1,-5.9940144E1,3.560222E1],"categories":[],"categories_nodes":[],"categories_segments":[],"categories_sizes":[],"default_left":[0,0,0,0,0,0,0,0,0,0,0,0,0,0,0,0,0,0,0,0,0,0,0,0,0,0,0,0,0,0,0,0,0,0,0,0,0,0,0,0,0,0,0,0,0,0,0,0,0,0,0,0,0,0,0,0,0,0,0,0,0],"id":24,"left_children":[1,3,5,7,9,11,13,15,17,19,21,23,25,27,29,31,-1,33,35,37,39,41,43,45,47,49,51,53,55,57,59,-1,-1,-1,-1,-1,-1,-1,-1,-1,-1,-1,-1,-1,-1,-1,-1,-1,-1,-1,-1,-1,-1,-1,-1,-1,-1,-1,-1,-1,-1],"loss_changes":[3.8414738E9,2.7165606E8,7.6421606E8,1.459776E7,3.626661E7,7.236906E7,4.9716224E7,3.80416E6,1.044992E6,3.956752E6,4.800616E6,2.9375516E7,2.2292304E7,1.2819008E7,2.5158912E7,7.40736E5,0E0,4.25376E5,6.85368E5,4.6256E5,4.720592E6,1.557286E6,3.8876E5,7.935167E7,5.511896E6,3.1485038E7,3.2476E6,3.063456E6,6.323567E6,3.893484E7,3.5929344E7,0E0,0E0,0E0,0E0,0E0,0E0,0E0,0E0,0E0,0E0,0E0,0E0,0E0,0E0,0E0,0E0,0E0,0E0,0E0,0E0,0E0,0E0,0E0,0E0,0E0,0E0,0E0,0E0,0E0,0E0],"parents":[2147483647,0,0,1,1,2,2,3,3,4,4,5,5,6,6,7,7,8,8,9,9,10,10,11,11,12,12,13,13,14,14,15,15,17,17,18,18,19,19,20,20,21,21,22,22,23,23,24,24,25,25,26,26,27,27,28,28,29,29,30,30],"right_children":[2,4,6,8,10,12,14,16,18,20,22,24,26,28,30,32,-1,34,36,38,40,42,44,46,48,50,52,54,56,58,60,-1,-1,-1,-1,-1,-1,-1,-1,-1,-1,-1,-1,-1,-1,-1,-1,-1,-1,-1,-1,-1,-1,-1,-1,-1,-1,-1,-1,-1,-1],"split_conditions":[7.694588E0,4.966529E0,1.092312E1,4.013009E0,6.828897E0,9.822724E0,1.200981E1,2.326796E2,7.867284E1,5.1E1,5.2E1,6E0,1E1,5.2E1,5E0,6E0,-2.0249208E1,8E0,1.122037E2,1.1E1,1.17178E2,3.172439E0,2.415486E2,5.755198E1,6.055431E1,4.441116E1,1.2E1,2.384696E2,4.441116E1,4.498747E1,2E0,-2.203528E1,-2.3384155E1,-1.7678137E1,-1.996034E1,-1.3337563E1,-1.687335E1,-1.0793927E1,-9.343933E0,-2.47986E1,-9.382484E0,-2.2234562E1,-3.3533685E0,-1.558725E1,-2.7015043E1,-2.7544447E1,1.4226778E1,8.072614E0,4.683997E0,-2.0685982E1,1.2728903E1,1.8618917E1,1.0356353E1,2.5279978E1,1.4344457E1,-3.9003872E1,3.462012E1,-1.1876812E1,2.8856613E1,-5.9940144E1,3.560222E1],"split_indices":[0,0,0,0,0,0,0,1,1,2,2,2,2,2,2,3,0,3,1,3,1,1,1,1,1,1,3,1,1,1,3,0,0,0,0,0,0,0,0,0,0,0,0,0,0,0,0,0,0,0,0,0,0,0,0,0,0,0,0,0,0],"split_type":[0,0,0,0,0,0,0,0,0,0,0,0,0,0,0,0,0,0,0,0,0,0,0,0,0,0,0,0,0,0,0,0,0,0,0,0,0,0,0,0,0,0,0,0,0,0,0,0,0,0,0,0,0,0,0,0,0,0,0,0,0],"sum_hessian":[3.2289E4,1.791E4,1.4379E4,9.937E3,7.973E3,7.564E3,6.815E3,7.574E3,2.363E3,5.313E3,2.66E3,5.273E3,2.291E3,1.872E3,4.943E3,5.206E3,2.368E3,1.142E3,1.221E3,5.11E3,2.03E2,2.614E3,4.6E1,4.53E2,4.82E3,3.92E2,1.899E3,1.858E3,1.4E1,5.6E2,4.383E3,2.555E3,2.651E3,7.05E2,4.37E2,1.86E2,1.035E3,4.412E3,6.98E2,1.09E2,9.4E1,1E1,2.604E3,3.2E1,1.4E1,2.3E2,2.23E2,2.312E3,2.508E3,9.1E1,3.01E2,1.767E3,1.32E2,1.787E3,7.1E1,1.1E1,3E0,6.6E1,4.94E2,9E0,4.374E3],"tree_param":{"num_deleted":"0","num_feature":"4","num_nodes":"61","size_leaf_vector":"1"}},{"base_weights":[-2.3369057E0,-2.3176617E2,4.6306403E2,-2.1669154E2,-3.1242175E2,3.3098727E2,4.9079553E2,-3.5278018E2,-1.9949444E1,-3.5886023E2,-8.85209E1,1.6039868E2,5.106954E2,3.0399384E2,6.431489E2,-4.194886E2,-2.4779054E2,-1.3558943E2,5.4269E1,-1.9111776E1,-2.796836E2,-1.5407698E2,2.178418E0,3.7894858E2,1.2709063E2,-5.743346E2,5.161864E2,2.0109172E2,4.0300748E2,5.503365E2,6.7256116E2,-2.0564943E1,-2.1897928E1,-1.3191274E1,-1.1015315E1,-6.497413E0,-1.0174339E1,-7.9343386E0,3.5556896E0,-1.3441556E1,-1.9550802E1,-6.620076E0,-1.2633059E1,2.2975125E0,-6.8667426E0,2.441824E1,-8.7709945E-1,-2.7947897E1,1.3046968E1,-6.999809E1,2.2136873E1,-9.920086E0,2.9136982E1,1.2487618E1,7.961496E0,1.8000134E1,2.3953085E1,3.2521126E1,2.633548E1,3.6339237E1,2.9103388E1],"categories":[],"categories_nodes":[],"categories_segments":[],"categories_sizes":[],"default_left":[0,0,0,0,0,0,0,0,0,0,0,0,0,0,0,0,0,0,0,0,0,0,0,0,0,0,0,0,0,0,0,0,0,0,0,0,0,0,0,0,0,0,0,0,0,0,0,0,0,0,0,0,0,0,0,0,0,0,0,0,0],"id":25,"left_children":[1,3,5,7,9,11,13,15,17,19,21,23,25,27,29,31,33,35,37,-1,39,41,43,45,47,49,51,53,55,57,59,-1,-1,-1,-1,-1,-1,-1,-1,-1,-1,-1,-1,-1,-1,-1,-1,-1,-1,-1,-1,-1,-1,-1,-1,-1,-1,-1,-1,-1,-1],"loss_changes":[3.4361782E9,2.6140032E7,3.8757376E7,4.8632243E8,3.523696E7,5.6540016E7,2.4968192E8,7.509478E7,6.375906E7,5.091904E6,3.472737E6,6.860056E6,5.652608E6,4.0123584E7,1.2828672E7,8.128E5,1.781392E6,1.085852E6,1.6243341E7,0E0,6.72984E5,6.909415E5,1.5085714E6,5.431378E6,7.590291E7,4.818427E6,4.2680176E7,3.905936E6,6.401664E6,2.42176E6,1.7570432E7,0E0,0E0,0E0,0E0,0E0,0E0,0E0,0E0,0E0,0E0,0E0,0E0,0E0,0E0,0E0,0E0,0E0,0E0,0E0,0E0,0E0,0E0,0E0,0E0,0E0,0E0,0E0,0E0,0E0,0E0],"parents":[2147483647,0,0,1,1,2,2,3,3,4,4,5,5,6,6,7,7,8,8,9,9,10,10,11,11,12,12,13,13,14,14,15,15,16,16,17,17,18,18,20,20,21,21,22,22,23,23,24,24,25,25,26,26,27,27,28,28,29,29,30,30],"right_children":[2,4,6,8,10,12,14,16,18,20,22,24,26,28,30,32,34,36,38,-1,40,42,44,46,48,50,52,54,56,58,60,-1,-1,-1,-1,-1,-1,-1,-1,-1,-1,-1,-1,-1,-1,-1,-1,-1,-1,-1,-1,-1,-1,-1,-1,-1,-1,-1,-1,-1,-1],"split_conditions":[9.084689E0,2.488198E2,4.235755E1,6.306017E0,5.889812E0,1.092312E1,1.163558E1,4.494076E0,7.325278E0,4.157823E0,7.238157E0,2.149338E1,3.172439E0,1.031286E1,1.254162E1,8E0,7.622169E1,1.2E1,2E0,-1.9111776E1,1.2E1,1.2E1,1.2E1,1.2E1,2E0,7E0,2E0,6.699526E1,9E0,3E0,1.970493E2,-2.0564943E1,-2.1897928E1,-1.3191274E1,-1.1015315E1,-6.497413E0,-1.0174339E1,-7.9343386E0,3.5556896E0,-1.3441556E1,-1.9550802E1,-6.620076E0,-1.2633059E1,2.2975125E0,-6.8667426E0,2.441824E1,-8.7709945E-1,-2.7947897E1,1.3046968E1,-6.999809E1,2.2136873E1,-9.920086E0,2.9136982E1,1.2487618E1,7.961496E0,1.8000134E1,2.3953085E1,3.2521126E1,2.633548E1,3.6339237E1,2.9103388E1],"split_indices":[0,1,1,0,0,0,0,0,0,0,0,1,1,0,0,3,1,3,3,0,3,3,3,3,3,3,3,1,3,3,1,0,0,0,0,0,0,0,0,0,0,0,0,0,0,0,0,0,0,0,0,0,0,0,0,0,0,0,0,0,0],"split_type":[0,0,0,0,0,0,0,0,0,0,0,0,0,0,0,0,0,0,0,0,0,0,0,0,0,0,0,0,0,0,0,0,0,0,0,0,0,0,0,0,0,0,0,0,0,0,0,0,0,0,0,0,0,0,0,0,0,0,0,0,0],"sum_hessian":[3.2179E4,2.1554E4,1.0625E4,1.8163E4,3.391E3,1.846E3,8.779E3,1.0736E4,7.427E3,2.808E3,5.83E2,9.48E2,8.98E2,3.945E3,4.834E3,6.563E3,4.173E3,2.903E3,4.524E3,2.165E3,6.43E2,3.38E2,2.45E2,1.24E2,8.24E2,4E0,8.94E2,1.936E3,2.009E3,1.168E3,3.666E3,4.563E3,2E3,2.63E3,1.543E3,2.683E3,2.2E2,3.31E2,4.193E3,5.89E2,5.4E1,2.79E2,5.9E1,1.87E2,5.8E1,9.7E1,2.7E1,1.34E2,6.9E2,2E0,2E0,7.6E1,8.18E2,8.93E2,1.043E3,1.287E3,7.22E2,2.18E2,9.5E2,2.288E3,1.378E3],"tree_param":{"num_deleted":"0","num_feature":"4","num_nodes":"61","size_leaf_vector":"1"}},{"base_weights":[-1.9151801E-1,-2.7753033E2,3.514484E2,-2.7024835E2,-3.2092657E2,2.9722894E2,4.378608E2,-3.8348315E2,-1.5182664E2,-3.5572995E2,-2.0214484E2,1.09455315E2,5.210439E2,1.7038016E2,5.747227E2,-3.7633224E2,-4.0011832E2,-1.476473E2,-2.7100665E2,-1.8661339E1,-1.7587132E1,-1.9058665E2,-5.056906E2,-4.487E2,1.4536038E2,1.9735817E2,5.4335004E2,2.792027E2,1.4548633E2,5.495467E2,6.4348615E2,-1.9654682E1,-1.8473911E1,-2.072134E1,-1.9061304E1,-1.3921006E0,-7.5265536E0,-2.1419586E1,-3.7841153E0,-9.678255E0,-2.415572E0,-2.7847885E1,-1.1512224E1,-2.5557852E1,1.6484833E1,8.267905E0,-2.1811018E1,-1.1946138E1,2.710065E1,2.7418842E1,-3.2966915E1,1.520651E1,-4.044421E1,-6.830425E1,8.075638E0,2.8157074E1,1.6058508E1,3.235901E1,1.1262418E1],"categories":[],"categories_nodes":[],"categories_segments":[],"categories_sizes":[],"default_left":[0,0,0,0,0,0,0,0,0,0,0,0,0,0,0,0,0,0,0,0,0,0,0,0,0,0,0,0,0,0,0,0,0,0,0,0,0,0,0,0,0,0,0,0,0,0,0,0,0,0,0,0,0,0,0,0,0,0,0],"id":26,"left_children":[1,3,5,7,9,11,13,15,17,19,21,23,25,27,29,31,33,35,37,-1,-1,39,41,43,45,47,49,51,53,55,57,-1,-1,-1,-1,-1,-1,-1,-1,-1,-1,-1,-1,-1,-1,-1,-1,-1,-1,-1,-1,-1,-1,-1,-1,-1,-1,-1,-1],"loss_changes":[3.1495178E9,5.618816E6,6.6587776E7,2.073458E8,1.0631056E7,3.6780115E8,2.0080634E8,7.89888E5,3.726576E6,8.336E3,1.970088E6,9.5478536E7,2.8722944E7,4.995432E6,5.930496E6,4.91904E5,4.80224E5,2.520672E6,7.806568E6,0E0,0E0,2.31768E5,1.68311E5,1.4170032E7,5.2106064E7,3.9074376E7,2.2942208E7,9.603534E6,3.6921668E7,8.090176E6,1.348192E6,0E0,0E0,0E0,0E0,0E0,0E0,0E0,0E0,0E0,0E0,0E0,0E0,0E0,0E0,0E0,0E0,0E0,0E0,0E0,0E0,0E0,0E0,0E0,0E0,0E0,0E0,0E0,0E0],"parents":[2147483647,0,0,1,1,2,2,3,3,4,4,5,5,6,6,7,7,8,8,9,9,10,10,11,11,12,12,13,13,14,14,15,15,16,16,17,17,18,18,21,21,22,22,23,23,24,24,25,25,26,26,27,27,28,28,29,29,30,30],"right_children":[2,4,6,8,10,12,14,16,18,20,22,24,26,28,30,32,34,36,38,-1,-1,40,42,44,46,48,50,52,54,56,58,-1,-1,-1,-1,-1,-1,-1,-1,-1,-1,-1,-1,-1,-1,-1,-1,-1,-1,-1,-1,-1,-1,-1,-1,-1,-1,-1,-1],"split_conditions":[7.736657E0,2.641368E2,1.613182E2,4.966529E0,4.642049E0,1.04845E1,1.061554E1,3.2E1,5.1E1,1.5E1,5.2E1,2E0,3E0,8E0,4E1,1.4E1,4.5E1,2E0,1.328636E2,-1.8661339E1,-1.7587132E1,5.1E1,3.404067E2,5.723019E1,5.1E1,4.66399E1,5.2E1,3.306534E2,9E0,1.4E1,3.568729E2,-1.9654682E1,-1.8473911E1,-2.072134E1,-1.9061304E1,-1.3921006E0,-7.5265536E0,-2.1419586E1,-3.7841153E0,-9.678255E0,-2.415572E0,-2.7847885E1,-1.1512224E1,-2.5557852E1,1.6484833E1,8.267905E0,-2.1811018E1,-1.1946138E1,2.710065E1,2.7418842E1,-3.2966915E1,1.520651E1,-4.044421E1,-6.830425E1,8.075638E0,2.8157074E1,1.6058508E1,3.235901E1,1.1262418E1],"split_indices":[0,1,1,0,0,0,0,2,2,2,2,3,3,2,2,2,2,2,1,0,0,2,1,1,2,1,2,1,2,2,1,0,0,0,0,0,0,0,0,0,0,0,0,0,0,0,0,0,0,0,0,0,0,0,0,0,0,0,0],"split_type":[0,0,0,0,0,0,0,0,0,0,0,0,0,0,0,0,0,0,0,0,0,0,0,0,0,0,0,0,0,0,0,0,0,0,0,0,0,0,0,0,0,0,0,0,0,0,0,0,0,0,0,0,0,0,0,0,0,0,0],"sum_hessian":[3.2293E4,1.8054E4,1.4239E4,1.5466E4,2.588E3,8.752E3,5.487E3,7.905E3,7.561E3,2E3,5.88E2,4.76E3,3.992E3,1.858E3,3.629E3,5.545E3,2.36E3,7.307E3,2.54E2,3.54E2,1.646E3,5.68E2,2E1,2.87E2,4.473E3,2.58E2,3.734E3,3.44E2,1.514E3,2.663E3,9.66E2,1.593E3,3.952E3,1.331E3,1.029E3,1.72E2,7.135E3,1.4E2,1.14E2,5.56E2,1.2E1,1.6E1,4E0,2.66E2,2.1E1,4.325E3,1.48E2,1.14E2,1.44E2,3.719E3,1.5E1,3.37E2,7E0,1.5E1,1.499E3,2.512E3,1.51E2,9.57E2,9E0],"tree_param":{"num_deleted":"0","num_feature":"4","num_nodes":"59","size_leaf_vector":"1"}},{"base_weights":[-4.7379455E-1,-2.669681E2,3.251622E2,-3.560361E2,-1.464242E2,1.25528725E2,5.223526E2,-3.7820004E2,-2.9204092E2,-1.8747745E2,-7.036165E1,8.572042E1,2.4841374E2,3.9678015E2,5.7845917E2,-3.9180563E2,-3.477418E2,-3.0968512E2,-2.624878E2,-2.189118E2,-1.573825E2,-9.968178E1,-2.135516E1,6.4387146E1,1.3765215E2,4.9751788E2,2.3968387E2,3.4561877E2,4.282027E2,3.1944208E2,5.9270734E2,-1.9911228E1,-1.7970167E1,-1.7594791E1,-1.5923103E1,-1.4999834E1,-1.6434465E1,-1.211743E1,-1.3666545E1,-8.032009E0,-1.1250842E1,-7.505258E0,-1.6662106E1,-4.7181163E0,-1.7946312E1,1.1425533E1,-1.3229355E0,-2.2959951E1,4.9532027E0,